{
	"sizes": [10, 5, 1],
	"layers": [
		{
			"0": {},
			"1": {},
			"2": {},
			"3": {},
			"4": {},
			"5": {},
			"6": {},
			"7": {},
			"8": {},
			"9": {}
		},
		{
			"0": {
				"bias": 3.949535369873047,
				"weights": {
					"0": -23.635343551635742,
					"1": 5.173125267028809,
					"2": 3.078423500061035,
					"3": -10.678114891052246,
					"4": -40.647789001464844,
					"5": -15.43752384185791,
					"6": -22.310462951660156,
					"7": 4.0793914794921875,
					"8": -0.06440796703100204,
					"9": 30.913715362548828
				}
			},
			"1": {
				"bias": -21.201786041259766,
				"weights": {
					"0": 8.76544189453125,
					"1": -15.887042045593262,
					"2": 17.031755447387695,
					"3": 6.415182590484619,
					"4": -16.1688175201416,
					"5": 9.293545722961426,
					"6": -12.268738746643066,
					"7": -11.464763641357422,
					"8": 7.61849308013916,
					"9": -6.619356155395508
				}
			},
			"2": {
				"bias": -2.8844969272613525,
				"weights": {
					"0": -33.309513092041016,
					"1": -7.341977596282959,
					"2": 4.9864726066589355,
					"3": 8.770913124084473,
					"4": 5.588003158569336,
					"5": -3.270848274230957,
					"6": -9.962601661682129,
					"7": 0.592326283454895,
					"8": -15.33648681640625,
					"9": -0.503661036491394
				}
			},
			"3": {
				"bias": 4.245479106903076,
				"weights": {
					"0": -0.585752010345459,
					"1": 0.49183306097984314,
					"2": -1.0466976165771484,
					"3": -2.3271191120147705,
					"4": -1.8991729021072388,
					"5": -1.0278100967407227,
					"6": -0.7755803465843201,
					"7": -0.7149038910865784,
					"8": -1.6508525609970093,
					"9": -3.005998373031616
				}
			},
			"4": {
				"bias": 4.310342788696289,
				"weights": {
					"0": -3.254774332046509,
					"1": 0.5661414861679077,
					"2": -0.07612575590610504,
					"3": -2.586188793182373,
					"4": -5.875217437744141,
					"5": -0.8837708234786987,
					"6": -2.6077871322631836,
					"7": -3.943187713623047,
					"8": -2.5691094398498535,
					"9": 2.5547380447387695
				}
			}
		},
		{
			"0": {
				"bias": -0.10230495780706406,
				"weights": {
					"0": 1.917265772819519,
					"1": 11.189865112304688,
					"2": 11.895469665527344,
					"3": 1.2085726261138916,
					"4": -2.987306594848633
				}
			}
		}
	],
	"outputLookup": false,
	"inputLookup": false,
	"activation": "sigmoid",
	"trainOpts": {
		"iterations": 20000,
		"errorThresh": 0.005,
		"log": false,
		"logPeriod": 10,
		"learningRate": 0.3,
		"momentum": 0.1,
		"callbackPeriod": 10,
		"beta1": 0.9,
		"beta2": 0.999,
		"epsilon": 1e-8
	}
}
