{
	"sizes": [5, 16, 4, 1],
	"layers": [
		{ "0": {}, "1": {}, "2": {}, "3": {}, "4": {} },
		{
			"0": {
				"bias": -15.82114028930664,
				"weights": {
					"0": -20.742450714111328,
					"1": 20.942243576049805,
					"2": 8.45753288269043,
					"3": -13.447104454040527,
					"4": -24.565786361694336
				}
			},
			"1": {
				"bias": -9.2703857421875,
				"weights": {
					"0": 31.846054077148438,
					"1": 3.534266710281372,
					"2": 0.8592833876609802,
					"3": -14.332536697387695,
					"4": -26.69200325012207
				}
			},
			"2": {
				"bias": -15.666377067565918,
				"weights": {
					"0": -8.558063507080078,
					"1": -33.498191833496094,
					"2": -34.39692687988281,
					"3": 25.772449493408203,
					"4": 27.780160903930664
				}
			},
			"3": {
				"bias": 15.292802810668945,
				"weights": {
					"0": -17.45427131652832,
					"1": -17.823760986328125,
					"2": -29.683956146240234,
					"3": -31.10852813720703,
					"4": -1.389116644859314
				}
			},
			"4": {
				"bias": 5.916684627532959,
				"weights": {
					"0": -67.43727111816406,
					"1": 30.028135299682617,
					"2": -39.74327850341797,
					"3": 5.208707332611084,
					"4": -32.27763748168945
				}
			},
			"5": {
				"bias": 8.053287506103516,
				"weights": {
					"0": -14.868147850036621,
					"1": -23.8448486328125,
					"2": -32.09300994873047,
					"3": 0.2034997045993805,
					"4": 4.872241497039795
				}
			},
			"6": {
				"bias": -53.5968017578125,
				"weights": {
					"0": 68.12732696533203,
					"1": 0.6814218759536743,
					"2": 5.590062141418457,
					"3": -9.319957733154297,
					"4": 8.02199935913086
				}
			},
			"7": {
				"bias": -2.0880885124206543,
				"weights": {
					"0": -19.882122039794922,
					"1": -11.438002586364746,
					"2": -7.412674903869629,
					"3": 19.397825241088867,
					"4": -15.507269859313965
				}
			},
			"8": {
				"bias": 11.839950561523438,
				"weights": {
					"0": -4.354997634887695,
					"1": -18.39740562438965,
					"2": -22.669065475463867,
					"3": -12.829264640808105,
					"4": 17.310636520385742
				}
			},
			"9": {
				"bias": -23.246475219726562,
				"weights": {
					"0": 19.09718894958496,
					"1": 6.204815864562988,
					"2": -6.003377437591553,
					"3": -37.80247497558594,
					"4": 20.360065460205078
				}
			},
			"10": {
				"bias": -22.135610580444336,
				"weights": {
					"0": -3.19624662399292,
					"1": 10.571126937866211,
					"2": 11.321523666381836,
					"3": 28.543041229248047,
					"4": -59.55942153930664
				}
			},
			"11": {
				"bias": -28.189640045166016,
				"weights": {
					"0": 31.820940017700195,
					"1": -22.799047470092773,
					"2": -39.96208190917969,
					"3": -8.570161819458008,
					"4": 8.495558738708496
				}
			},
			"12": {
				"bias": -8.82927131652832,
				"weights": {
					"0": -11.324159622192383,
					"1": -30.8300724029541,
					"2": -27.524307250976562,
					"3": -12.30217170715332,
					"4": 35.18376922607422
				}
			},
			"13": {
				"bias": 4.332022190093994,
				"weights": {
					"0": -26.586034774780273,
					"1": 14.022109031677246,
					"2": -24.138282775878906,
					"3": -13.21171760559082,
					"4": 23.667999267578125
				}
			},
			"14": {
				"bias": -1.5411908626556396,
				"weights": {
					"0": -26.195985794067383,
					"1": -79.76374053955078,
					"2": -30.588918685913086,
					"3": 32.59983444213867,
					"4": 1.1711210012435913
				}
			},
			"15": {
				"bias": -43.297218322753906,
				"weights": {
					"0": 20.668071746826172,
					"1": 0.1553371250629425,
					"2": 8.202573776245117,
					"3": 29.11785125732422,
					"4": 17.90601921081543
				}
			}
		},
		{
			"0": {
				"bias": 1.332748532295227,
				"weights": {
					"0": 0.809842586517334,
					"1": -6.678130149841309,
					"2": 2.120023727416992,
					"3": 2.3215246200561523,
					"4": -28.557823181152344,
					"5": -15.844400405883789,
					"6": 2.1696901321411133,
					"7": 0.006387269590049982,
					"8": -0.882327675819397,
					"9": -2.060725688934326,
					"10": 3.6587789058685303,
					"11": -13.731107711791992,
					"12": 1.3574471473693848,
					"13": -2.00654673576355,
					"14": -6.685546875,
					"15": -4.697150707244873
				}
			},
			"1": {
				"bias": -33.940879821777344,
				"weights": {
					"0": 21.045873641967773,
					"1": 34.534244537353516,
					"2": -43.59169006347656,
					"3": 8.98166275024414,
					"4": -17.936311721801758,
					"5": 2.2955446243286133,
					"6": -23.865385055541992,
					"7": -25.563575744628906,
					"8": 19.588390350341797,
					"9": 6.0396623611450195,
					"10": -11.687569618225098,
					"11": -24.86726188659668,
					"12": -12.501236915588379,
					"13": -0.44850513339042664,
					"14": 33.59804916381836,
					"15": 34.854270935058594
				}
			},
			"2": {
				"bias": -17.84241485595703,
				"weights": {
					"0": 2.231762409210205,
					"1": 4.6259002685546875,
					"2": 15.838824272155762,
					"3": -39.852294921875,
					"4": -0.7480373382568359,
					"5": -15.049198150634766,
					"6": 22.033571243286133,
					"7": -12.570423126220703,
					"8": 4.124960422515869,
					"9": -45.573917388916016,
					"10": 15.15673542022705,
					"11": -18.658193588256836,
					"12": -9.619855880737305,
					"13": 17.34397315979004,
					"14": 14.941205024719238,
					"15": -50.81206130981445
				}
			},
			"3": {
				"bias": -26.404760360717773,
				"weights": {
					"0": 20.827102661132812,
					"1": 25.93934440612793,
					"2": -25.559677124023438,
					"3": 22.35146141052246,
					"4": 57.434043884277344,
					"5": 8.391560554504395,
					"6": -21.18362808227539,
					"7": 18.126808166503906,
					"8": 0.23026293516159058,
					"9": 22.691543579101562,
					"10": -30.90520477294922,
					"11": -23.394847869873047,
					"12": 30.134008407592773,
					"13": -54.09857177734375,
					"14": -28.270360946655273,
					"15": -9.28674030303955
				}
			}
		},
		{
			"0": {
				"bias": -0.6370875239372253,
				"weights": {
					"0": 0.9946193099021912,
					"1": 1.0428797006607056,
					"2": 1.5688875913619995,
					"3": 2.005972146987915
				}
			}
		}
	],
	"outputLookup": false,
	"inputLookup": false,
	"activation": "sigmoid",
	"trainOpts": {
		"iterations": 20000,
		"errorThresh": 0.005,
		"log": false,
		"logPeriod": 10,
		"learningRate": 0.3,
		"momentum": 0.1,
		"callbackPeriod": 10,
		"beta1": 0.9,
		"beta2": 0.999,
		"epsilon": 1e-8
	}
}
