{
	"sizes": [30, 25, 5, 1],
	"layers": [
		{
			"0": {},
			"1": {},
			"2": {},
			"3": {},
			"4": {},
			"5": {},
			"6": {},
			"7": {},
			"8": {},
			"9": {},
			"10": {},
			"11": {},
			"12": {},
			"13": {},
			"14": {},
			"15": {},
			"16": {},
			"17": {},
			"18": {},
			"19": {},
			"20": {},
			"21": {},
			"22": {},
			"23": {},
			"24": {},
			"25": {},
			"26": {},
			"27": {},
			"28": {},
			"29": {}
		},
		{
			"0": {
				"bias": -4.881774425506592,
				"weights": {
					"0": -2.7783989906311035,
					"1": 5.28009557723999,
					"2": -2.68757700920105,
					"3": -4.312692165374756,
					"4": 1.7301602363586426,
					"5": -9.979631423950195,
					"6": -3.6930792331695557,
					"7": 0.24227668344974518,
					"8": 6.145350456237793,
					"9": 0.4201425611972809,
					"10": -1.2213352918624878,
					"11": -6.235433101654053,
					"12": -5.126136302947998,
					"13": 5.42207670211792,
					"14": 0.007175691891461611,
					"15": 3.265247106552124,
					"16": -7.502024173736572,
					"17": 3.2485203742980957,
					"18": 8.215970993041992,
					"19": 3.416349411010742,
					"20": -7.518689155578613,
					"21": 1.417948603630066,
					"22": 6.396023750305176,
					"23": 1.8503600358963013,
					"24": -4.050573825836182,
					"25": -4.1415863037109375,
					"26": 3.0535829067230225,
					"27": 3.4118614196777344,
					"28": 5.085284233093262,
					"29": -7.695614814758301
				}
			},
			"1": {
				"bias": -22.170387268066406,
				"weights": {
					"0": -0.8896392583847046,
					"1": -0.5710222721099854,
					"2": 0.9486373662948608,
					"3": -1.8963690996170044,
					"4": 2.504487991333008,
					"5": 1.000001072883606,
					"6": 0.4857247769832611,
					"7": -0.5415098071098328,
					"8": -0.24879190325737,
					"9": 1.593387246131897,
					"10": 3.226944923400879,
					"11": 1.857702612876892,
					"12": -1.4001400470733643,
					"13": 2.354220390319824,
					"14": 0.9031434059143066,
					"15": 0.8683865666389465,
					"16": 3.0401320457458496,
					"17": 0.14205491542816162,
					"18": -1.4570159912109375,
					"19": 0.280091255903244,
					"20": 0.31406712532043457,
					"21": 0.7990821003913879,
					"22": 4.997194766998291,
					"23": 2.1458005905151367,
					"24": 2.5385727882385254,
					"25": 2.9937875270843506,
					"26": -1.5201945304870605,
					"27": 1.5868234634399414,
					"28": 4.497074604034424,
					"29": 8.516633987426758
				}
			},
			"2": {
				"bias": -16.227266311645508,
				"weights": {
					"0": 3.8045740127563477,
					"1": 3.734771251678467,
					"2": -4.3148298263549805,
					"3": 7.175857067108154,
					"4": 5.026581764221191,
					"5": -4.725125312805176,
					"6": 3.079104423522949,
					"7": -7.433387279510498,
					"8": -0.37898141145706177,
					"9": -6.6238508224487305,
					"10": 1.9593641757965088,
					"11": -3.9206180572509766,
					"12": 1.634741187095642,
					"13": 4.3630170822143555,
					"14": 0.46771863102912903,
					"15": -9.18174934387207,
					"16": -2.711634635925293,
					"17": 2.579221487045288,
					"18": -1.1019002199172974,
					"19": -8.278100967407227,
					"20": -5.241098880767822,
					"21": -13.821887969970703,
					"22": -2.7487828731536865,
					"23": -4.689952373504639,
					"24": 16.803470611572266,
					"25": 15.716438293457031,
					"26": 3.307344436645508,
					"27": 12.923165321350098,
					"28": 2.413814067840576,
					"29": -10.030518531799316
				}
			},
			"3": {
				"bias": 1.7472739219665527,
				"weights": {
					"0": 4.8138427734375,
					"1": -0.19941101968288422,
					"2": -6.209204196929932,
					"3": -8.119284629821777,
					"4": 2.267117977142334,
					"5": -1.2058196067810059,
					"6": -2.9040918350219727,
					"7": -8.846480369567871,
					"8": 3.6696627140045166,
					"9": -1.9151089191436768,
					"10": 2.4230804443359375,
					"11": -3.068610429763794,
					"12": -5.179559230804443,
					"13": 10.918719291687012,
					"14": -4.1619672775268555,
					"15": 4.5139288902282715,
					"16": 1.1190972328186035,
					"17": 1.607515811920166,
					"18": -2.3219451904296875,
					"19": 0.4676852822303772,
					"20": 1.437186598777771,
					"21": -0.6954081654548645,
					"22": 0.6925369501113892,
					"23": -2.7454278469085693,
					"24": -3.299520254135132,
					"25": -1.8449907302856445,
					"26": 0.24799084663391113,
					"27": 1.1604079008102417,
					"28": 2.1248364448547363,
					"29": -8.657129287719727
				}
			},
			"4": {
				"bias": -13.960919380187988,
				"weights": {
					"0": 2.9761624336242676,
					"1": 8.171768188476562,
					"2": 3.429560661315918,
					"3": 0.3989069163799286,
					"4": -2.0888185501098633,
					"5": 3.5704431533813477,
					"6": -2.7215142250061035,
					"7": 0.15679039061069489,
					"8": -0.9819859266281128,
					"9": 1.2555447816848755,
					"10": -1.111601710319519,
					"11": -1.9063606262207031,
					"12": -0.2374587208032608,
					"13": -9.846240043640137,
					"14": 1.9340550899505615,
					"15": 3.1842212677001953,
					"16": -2.580322504043579,
					"17": 0.41713622212409973,
					"18": 2.1916699409484863,
					"19": -0.4766896665096283,
					"20": 4.547641754150391,
					"21": -0.9853569269180298,
					"22": -2.1081857681274414,
					"23": 1.9368911981582642,
					"24": -2.030195474624634,
					"25": -3.227126121520996,
					"26": -0.45218613743782043,
					"27": 6.942854404449463,
					"28": -0.2916232943534851,
					"29": 4.472278118133545
				}
			},
			"5": {
				"bias": -11.412010192871094,
				"weights": {
					"0": 3.1902759075164795,
					"1": -2.1364097595214844,
					"2": -1.6742830276489258,
					"3": -0.9270744919776917,
					"4": -1.2427157163619995,
					"5": -0.9178441762924194,
					"6": -3.4904918670654297,
					"7": -1.3322805166244507,
					"8": -3.87992525100708,
					"9": 2.646034002304077,
					"10": -2.7452142238616943,
					"11": 14.597288131713867,
					"12": -4.349192142486572,
					"13": -2.9822371006011963,
					"14": 5.434812545776367,
					"15": -1.600751280784607,
					"16": 5.220313549041748,
					"17": -3.802995443344116,
					"18": -0.9272047281265259,
					"19": 3.715707540512085,
					"20": 1.981345772743225,
					"21": 3.7093753814697266,
					"22": -9.20080280303955,
					"23": -0.5143061280250549,
					"24": 1.9216293096542358,
					"25": 6.8220038414001465,
					"26": 3.217778444290161,
					"27": -2.085191488265991,
					"28": 2.134418249130249,
					"29": -0.08236255496740341
				}
			},
			"6": {
				"bias": 1.3933535814285278,
				"weights": {
					"0": -5.07725715637207,
					"1": -12.448420524597168,
					"2": 7.939914226531982,
					"3": 8.329083442687988,
					"4": -7.266885757446289,
					"5": -5.496081829071045,
					"6": 1.3741954565048218,
					"7": -5.77519416809082,
					"8": -7.422243595123291,
					"9": 0.9696634411811829,
					"10": 6.162155628204346,
					"11": -4.31919527053833,
					"12": -5.641354084014893,
					"13": 1.5400397777557373,
					"14": 6.577024936676025,
					"15": 7.372551918029785,
					"16": -9.831436157226562,
					"17": 3.51894211769104,
					"18": -0.8591439723968506,
					"19": 10.092784881591797,
					"20": 7.758358001708984,
					"21": 1.2909135818481445,
					"22": 4.3817267417907715,
					"23": 0.12333463132381439,
					"24": 0.6061877608299255,
					"25": -3.3200998306274414,
					"26": -16.502090454101562,
					"27": -9.338676452636719,
					"28": -10.705100059509277,
					"29": -4.101705074310303
				}
			},
			"7": {
				"bias": 0.550171971321106,
				"weights": {
					"0": 1.3899563550949097,
					"1": -3.603466033935547,
					"2": 8.833407402038574,
					"3": -1.1979968547821045,
					"4": -10.968805313110352,
					"5": -13.511160850524902,
					"6": -2.5867724418640137,
					"7": -2.476423978805542,
					"8": -0.8505118489265442,
					"9": -4.720576286315918,
					"10": 3.213437795639038,
					"11": 1.103285312652588,
					"12": -4.073831558227539,
					"13": -2.712550163269043,
					"14": 1.8830593824386597,
					"15": 1.6907219886779785,
					"16": -5.689648628234863,
					"17": -6.662130832672119,
					"18": 4.830992221832275,
					"19": 8.712523460388184,
					"20": 0.7836225032806396,
					"21": -3.066448211669922,
					"22": 0.2540391981601715,
					"23": -5.297460079193115,
					"24": -7.379674911499023,
					"25": 10.376502990722656,
					"26": 8.130758285522461,
					"27": -5.092065334320068,
					"28": -3.257606267929077,
					"29": 13.092604637145996
				}
			},
			"8": {
				"bias": -9.136019706726074,
				"weights": {
					"0": 3.7226483821868896,
					"1": 0.3156702220439911,
					"2": 1.0910773277282715,
					"3": 0.09538339823484421,
					"4": 4.950981140136719,
					"5": -6.2773823738098145,
					"6": -1.1676267385482788,
					"7": 0.034892138093709946,
					"8": 8.128910064697266,
					"9": 7.664031982421875,
					"10": 3.2192347049713135,
					"11": -2.028583526611328,
					"12": 2.4082558155059814,
					"13": 6.052009582519531,
					"14": -9.176060676574707,
					"15": 5.167446136474609,
					"16": 5.949647903442383,
					"17": 2.510181188583374,
					"18": 0.10936686396598816,
					"19": 0.21377046406269073,
					"20": -1.6215039491653442,
					"21": -1.208303451538086,
					"22": 1.7865240573883057,
					"23": -0.7076303362846375,
					"24": -6.769351005554199,
					"25": -1.7964669466018677,
					"26": -9.87605094909668,
					"27": -6.637639045715332,
					"28": -5.172483444213867,
					"29": 2.753809690475464
				}
			},
			"9": {
				"bias": -16.051607131958008,
				"weights": {
					"0": -7.379331111907959,
					"1": 4.831965446472168,
					"2": -5.25131893157959,
					"3": -8.666213989257812,
					"4": -7.495153427124023,
					"5": 3.0849196910858154,
					"6": -3.2967309951782227,
					"7": 10.03200626373291,
					"8": -1.7225130796432495,
					"9": -12.955892562866211,
					"10": -1.5019010305404663,
					"11": -6.64029598236084,
					"12": -11.246808052062988,
					"13": -4.070838928222656,
					"14": 0.06895233690738678,
					"15": 2.572800874710083,
					"16": 0.3318425416946411,
					"17": 7.871563911437988,
					"18": 3.8095765113830566,
					"19": -2.211911201477051,
					"20": 4.926590919494629,
					"21": 7.599490642547607,
					"22": 5.537077903747559,
					"23": 6.706532955169678,
					"24": 2.022400140762329,
					"25": -8.780451774597168,
					"26": 7.147550106048584,
					"27": -1.6005885601043701,
					"28": 21.493627548217773,
					"29": -3.3962414264678955
				}
			},
			"10": {
				"bias": -1.7971545457839966,
				"weights": {
					"0": 3.2081680297851562,
					"1": 2.4399917125701904,
					"2": 1.2061156034469604,
					"3": 3.085432529449463,
					"4": -7.746945381164551,
					"5": -4.778017520904541,
					"6": -2.1298882961273193,
					"7": -1.0887491703033447,
					"8": 9.121315002441406,
					"9": 3.9599671363830566,
					"10": -6.609386920928955,
					"11": 1.427740454673767,
					"12": -2.078385591506958,
					"13": -3.2510781288146973,
					"14": 7.2972331047058105,
					"15": -1.5158575773239136,
					"16": 0.9371791481971741,
					"17": 0.10958071053028107,
					"18": 9.565689086914062,
					"19": 2.9733524322509766,
					"20": -6.034122943878174,
					"21": 0.39274072647094727,
					"22": -1.1455938816070557,
					"23": 4.810345649719238,
					"24": 1.6973742246627808,
					"25": -2.254150629043579,
					"26": -3.0520379543304443,
					"27": -0.5464276075363159,
					"28": -8.054497718811035,
					"29": -4.429137229919434
				}
			},
			"11": {
				"bias": -3.7883784770965576,
				"weights": {
					"0": 5.820389270782471,
					"1": -1.0852183103561401,
					"2": 6.559389114379883,
					"3": -0.9282734990119934,
					"4": 4.809277057647705,
					"5": -5.295480728149414,
					"6": -0.4713976979255676,
					"7": -7.028024673461914,
					"8": 1.226585865020752,
					"9": 3.1069142818450928,
					"10": 7.082587718963623,
					"11": -7.951943397521973,
					"12": 1.163300633430481,
					"13": -2.5580058097839355,
					"14": -0.5165533423423767,
					"15": 2.823942184448242,
					"16": 0.08640012890100479,
					"17": 5.120802879333496,
					"18": -1.5221537351608276,
					"19": -2.1157326698303223,
					"20": 0.7153627872467041,
					"21": 1.528225064277649,
					"22": -9.124499320983887,
					"23": -0.6810681819915771,
					"24": -3.187278985977173,
					"25": -1.4129507541656494,
					"26": -12.195902824401855,
					"27": 3.174590826034546,
					"28": -6.713833332061768,
					"29": 1.543079137802124
				}
			},
			"12": {
				"bias": -3.613896369934082,
				"weights": {
					"0": -5.568218231201172,
					"1": -1.5997282266616821,
					"2": 1.1409903764724731,
					"3": -3.158759593963623,
					"4": 2.055327892303467,
					"5": 0.848595142364502,
					"6": -0.33835065364837646,
					"7": 5.645683288574219,
					"8": -13.896246910095215,
					"9": 0.8836605548858643,
					"10": -0.2107522338628769,
					"11": -18.4038028717041,
					"12": 1.6462897062301636,
					"13": 8.512425422668457,
					"14": -10.75560188293457,
					"15": -0.9301765561103821,
					"16": -0.7990738153457642,
					"17": 3.8501124382019043,
					"18": -8.959245681762695,
					"19": 5.041384220123291,
					"20": -8.747368812561035,
					"21": 0.06311721354722977,
					"22": 3.54573655128479,
					"23": 4.867414474487305,
					"24": -8.532394409179688,
					"25": 6.079378128051758,
					"26": 6.1434149742126465,
					"27": -2.6732852458953857,
					"28": 2.2232766151428223,
					"29": 5.003089427947998
				}
			},
			"13": {
				"bias": -8.691448211669922,
				"weights": {
					"0": -2.9984822273254395,
					"1": -2.427050828933716,
					"2": 2.007391929626465,
					"3": -5.782689094543457,
					"4": -2.8189544677734375,
					"5": 3.5860917568206787,
					"6": 6.960025310516357,
					"7": 2.0777390003204346,
					"8": -4.768109321594238,
					"9": 3.5250463485717773,
					"10": 1.277647852897644,
					"11": 10.101492881774902,
					"12": -4.6537957191467285,
					"13": 3.5995514392852783,
					"14": 4.577014923095703,
					"15": -2.6499621868133545,
					"16": 6.5079498291015625,
					"17": 5.664632797241211,
					"18": -3.3333754539489746,
					"19": -2.0581295490264893,
					"20": 9.561882019042969,
					"21": 4.46770715713501,
					"22": -3.8052027225494385,
					"23": 1.0446218252182007,
					"24": -0.2461545467376709,
					"25": 6.289811134338379,
					"26": -2.179737091064453,
					"27": 5.498132705688477,
					"28": -5.637850761413574,
					"29": 12.870719909667969
				}
			},
			"14": {
				"bias": -7.506308555603027,
				"weights": {
					"0": 2.2731034755706787,
					"1": -1.962044596672058,
					"2": -2.0144968032836914,
					"3": 3.783926248550415,
					"4": -0.5526112914085388,
					"5": 7.732055187225342,
					"6": -5.890644073486328,
					"7": 5.644110679626465,
					"8": -3.9445242881774902,
					"9": -1.8135008811950684,
					"10": 1.6523419618606567,
					"11": 6.985561370849609,
					"12": -8.401985168457031,
					"13": 4.572680473327637,
					"14": -13.759832382202148,
					"15": -0.927478015422821,
					"16": -5.419726371765137,
					"17": 10.240625381469727,
					"18": -1.1776117086410522,
					"19": -3.8118152618408203,
					"20": 3.528264045715332,
					"21": 9.2103271484375,
					"22": 3.987339735031128,
					"23": 0.6464011073112488,
					"24": 2.3539693355560303,
					"25": -4.940757751464844,
					"26": -8.350608825683594,
					"27": -7.123214244842529,
					"28": 3.210047721862793,
					"29": 2.450758695602417
				}
			},
			"15": {
				"bias": -1.140242338180542,
				"weights": {
					"0": 2.255913734436035,
					"1": 0.13119202852249146,
					"2": -2.727696657180786,
					"3": -2.818159818649292,
					"4": 0.19990657269954681,
					"5": 3.3220486640930176,
					"6": -7.630992889404297,
					"7": 1.5586175918579102,
					"8": 1.1646391153335571,
					"9": -8.11999225616455,
					"10": -3.638913154602051,
					"11": 3.490203857421875,
					"12": -10.00575065612793,
					"13": -0.15822112560272217,
					"14": -9.14985466003418,
					"15": -2.978426456451416,
					"16": -2.5754008293151855,
					"17": 3.23309063911438,
					"18": -0.6628666520118713,
					"19": 0.47944316267967224,
					"20": 2.579810619354248,
					"21": 6.159108638763428,
					"22": 3.483616828918457,
					"23": 1.0027289390563965,
					"24": 3.4160194396972656,
					"25": -1.9067553281784058,
					"26": -0.7829144597053528,
					"27": -6.453716278076172,
					"28": 10.416733741760254,
					"29": 1.7961963415145874
				}
			},
			"16": {
				"bias": -6.171169757843018,
				"weights": {
					"0": -9.555784225463867,
					"1": 5.011063575744629,
					"2": -9.400293350219727,
					"3": -3.710186243057251,
					"4": -3.7849786281585693,
					"5": -2.10209584236145,
					"6": -4.953157424926758,
					"7": 7.599433422088623,
					"8": -1.9887505769729614,
					"9": 9.011717796325684,
					"10": -15.085455894470215,
					"11": -4.248496055603027,
					"12": -5.058515548706055,
					"13": -17.324270248413086,
					"14": -8.538358688354492,
					"15": -9.303150177001953,
					"16": 0.9935140013694763,
					"17": 3.973252296447754,
					"18": 8.793222427368164,
					"19": -1.7510581016540527,
					"20": -1.3791457414627075,
					"21": -4.451544761657715,
					"22": -5.581900119781494,
					"23": -0.9839490652084351,
					"24": 10.529834747314453,
					"25": 15.043070793151855,
					"26": 7.2226176261901855,
					"27": -1.6724148988723755,
					"28": 3.568202257156372,
					"29": 12.388802528381348
				}
			},
			"17": {
				"bias": -3.566620111465454,
				"weights": {
					"0": -8.100116729736328,
					"1": -1.8831113576889038,
					"2": 4.931861400604248,
					"3": -7.328598499298096,
					"4": 4.256450653076172,
					"5": -11.26131534576416,
					"6": -1.8337602615356445,
					"7": -14.417909622192383,
					"8": -4.662132263183594,
					"9": -1.586124300956726,
					"10": -4.537203311920166,
					"11": 2.1210973262786865,
					"12": -6.34494161605835,
					"13": -7.924532413482666,
					"14": -0.5308541059494019,
					"15": 10.267158508300781,
					"16": 8.08773422241211,
					"17": -3.594033718109131,
					"18": -0.1494586020708084,
					"19": 7.8863139152526855,
					"20": -2.8077802658081055,
					"21": 8.107336044311523,
					"22": 4.433457374572754,
					"23": 8.3085298538208,
					"24": -0.8654279112815857,
					"25": 5.798162937164307,
					"26": -9.738266944885254,
					"27": -1.146772027015686,
					"28": 8.187603950500488,
					"29": 0.2664857804775238
				}
			},
			"18": {
				"bias": -2.0236454010009766,
				"weights": {
					"0": -8.558177947998047,
					"1": -1.0218610763549805,
					"2": 3.11698055267334,
					"3": -5.648465156555176,
					"4": 1.8798891305923462,
					"5": 1.4256993532180786,
					"6": -8.950764656066895,
					"7": -0.32500550150871277,
					"8": 3.6368589401245117,
					"9": -3.7908639907836914,
					"10": 9.897401809692383,
					"11": -0.7527079582214355,
					"12": -17.135759353637695,
					"13": -3.7791643142700195,
					"14": 2.550222158432007,
					"15": -6.143523693084717,
					"16": 0.8478879928588867,
					"17": -3.239333152770996,
					"18": -7.031954765319824,
					"19": 10.368692398071289,
					"20": -5.157029151916504,
					"21": 16.191614151000977,
					"22": -4.084255695343018,
					"23": -1.8486710786819458,
					"24": 7.22605562210083,
					"25": 3.545715093612671,
					"26": 5.722233772277832,
					"27": -0.26676446199417114,
					"28": 6.047553539276123,
					"29": -19.681716918945312
				}
			},
			"19": {
				"bias": 6.153757572174072,
				"weights": {
					"0": -3.054222583770752,
					"1": 3.9238476753234863,
					"2": -1.4417729377746582,
					"3": 1.1963542699813843,
					"4": -4.596495628356934,
					"5": -1.6754924058914185,
					"6": -2.2939271926879883,
					"7": -12.81406021118164,
					"8": -2.6134092807769775,
					"9": 10.665812492370605,
					"10": 2.7664098739624023,
					"11": 9.588815689086914,
					"12": -9.33958625793457,
					"13": -2.7556421756744385,
					"14": -1.7041447162628174,
					"15": -0.9753756523132324,
					"16": 4.162649154663086,
					"17": -6.680356025695801,
					"18": -0.052263543009757996,
					"19": -2.4198286533355713,
					"20": 3.459214925765991,
					"21": 8.039032936096191,
					"22": -13.817391395568848,
					"23": -1.7826203107833862,
					"24": -1.9016520977020264,
					"25": -6.956763744354248,
					"26": 1.0770459175109863,
					"27": -16.897451400756836,
					"28": 1.460486888885498,
					"29": -3.222425699234009
				}
			},
			"20": {
				"bias": -6.9280219078063965,
				"weights": {
					"0": 1.417341947555542,
					"1": 1.8901513814926147,
					"2": -2.8345108032226562,
					"3": 6.141972064971924,
					"4": -4.056704521179199,
					"5": -3.236654043197632,
					"6": 9.252219200134277,
					"7": 8.404805183410645,
					"8": -0.9200752377510071,
					"9": -8.055246353149414,
					"10": 3.6504833698272705,
					"11": 7.6068830490112305,
					"12": 4.92102575302124,
					"13": -13.546493530273438,
					"14": -0.6537429094314575,
					"15": -0.3782375156879425,
					"16": 2.4064559936523438,
					"17": 3.915987491607666,
					"18": -11.596631050109863,
					"19": 12.035848617553711,
					"20": -1.1913237571716309,
					"21": -17.513931274414062,
					"22": 0.26091691851615906,
					"23": 6.344701290130615,
					"24": -1.3516801595687866,
					"25": 3.396353006362915,
					"26": -7.434112071990967,
					"27": -7.5688982009887695,
					"28": -3.2671995162963867,
					"29": -2.0277278423309326
				}
			},
			"21": {
				"bias": 0.48684364557266235,
				"weights": {
					"0": 5.421175003051758,
					"1": 4.644214630126953,
					"2": 1.2529866695404053,
					"3": 0.8481062054634094,
					"4": -4.720064640045166,
					"5": 0.5539562106132507,
					"6": -2.884157180786133,
					"7": -2.1130847930908203,
					"8": -1.0493265390396118,
					"9": -3.0110816955566406,
					"10": 0.14402277767658234,
					"11": 4.174679756164551,
					"12": -1.7052645683288574,
					"13": -0.8660150170326233,
					"14": 5.204524517059326,
					"15": 2.2436842918395996,
					"16": -1.7232376337051392,
					"17": 1.1751333475112915,
					"18": 1.7067501544952393,
					"19": 2.161409854888916,
					"20": -2.321523904800415,
					"21": -2.67622971534729,
					"22": -0.44167229533195496,
					"23": 3.19950532913208,
					"24": 2.7095389366149902,
					"25": 0.9282612800598145,
					"26": 3.8834285736083984,
					"27": 5.12864351272583,
					"28": -6.023750305175781,
					"29": -5.061162948608398
				}
			},
			"22": {
				"bias": 9.414005279541016,
				"weights": {
					"0": -5.445962429046631,
					"1": -6.146024703979492,
					"2": -9.390612602233887,
					"3": 3.1380696296691895,
					"4": -1.1790724992752075,
					"5": -10.294968605041504,
					"6": 5.121907711029053,
					"7": 12.543418884277344,
					"8": -1.6595722436904907,
					"9": -5.385743141174316,
					"10": 2.0681710243225098,
					"11": 0.27246683835983276,
					"12": -2.4099721908569336,
					"13": -17.35692024230957,
					"14": 4.879491806030273,
					"15": 1.633741021156311,
					"16": 6.74033260345459,
					"17": -6.7885236740112305,
					"18": 0.38404473662376404,
					"19": -3.7899813652038574,
					"20": -5.735151767730713,
					"21": 1.2083896398544312,
					"22": -6.374387264251709,
					"23": 6.415155410766602,
					"24": -0.440963476896286,
					"25": -6.306612491607666,
					"26": 6.725437164306641,
					"27": -8.422311782836914,
					"28": 1.2179291248321533,
					"29": 4.249579429626465
				}
			},
			"23": {
				"bias": -6.67566442489624,
				"weights": {
					"0": 6.149625301361084,
					"1": -11.469670295715332,
					"2": -0.8804125189781189,
					"3": 2.942807674407959,
					"4": -1.4888975620269775,
					"5": 12.496438026428223,
					"6": -2.787038564682007,
					"7": 5.109489440917969,
					"8": -8.068147659301758,
					"9": 2.737966537475586,
					"10": -7.1856255531311035,
					"11": 0.2854804992675781,
					"12": 1.6727296113967896,
					"13": 12.79051399230957,
					"14": 0.4519590437412262,
					"15": -2.1387648582458496,
					"16": -2.7305896282196045,
					"17": 10.805839538574219,
					"18": -3.1396119594573975,
					"19": 1.550978660583496,
					"20": -1.9473973512649536,
					"21": 9.859420776367188,
					"22": -6.024150371551514,
					"23": 1.6511989831924438,
					"24": 6.37515115737915,
					"25": -7.674134731292725,
					"26": -9.188187599182129,
					"27": -12.119564056396484,
					"28": 2.4769105911254883,
					"29": -1.783937692642212
				}
			},
			"24": {
				"bias": 2.2108490467071533,
				"weights": {
					"0": 1.1708507537841797,
					"1": 3.4169983863830566,
					"2": -6.339581489562988,
					"3": 4.958613395690918,
					"4": -1.2343425750732422,
					"5": 0.706386387348175,
					"6": -1.7350146770477295,
					"7": -0.1647043526172638,
					"8": 0.6646998524665833,
					"9": 0.2213449478149414,
					"10": -0.4026122987270355,
					"11": -2.780470371246338,
					"12": -3.1807360649108887,
					"13": -8.080641746520996,
					"14": 1.8418052196502686,
					"15": 4.033469200134277,
					"16": 0.18849599361419678,
					"17": -6.037262916564941,
					"18": -7.575869083404541,
					"19": -6.958443641662598,
					"20": 0.19165447354316711,
					"21": -1.9721039533615112,
					"22": 2.1622672080993652,
					"23": -4.759085178375244,
					"24": 4.313404083251953,
					"25": -6.626080513000488,
					"26": 0.7998072504997253,
					"27": 3.60453462600708,
					"28": 0.38205376267433167,
					"29": 5.11800479888916
				}
			}
		},
		{
			"0": {
				"bias": 0.33664366602897644,
				"weights": {
					"0": -23.52095603942871,
					"1": -6.0560407638549805,
					"2": 1.5644749402999878,
					"3": 3.830249547958374,
					"4": 1.2636759281158447,
					"5": -4.722769260406494,
					"6": -2.5950937271118164,
					"7": 1.8157862424850464,
					"8": -2.462578058242798,
					"9": 1.1514390707015991,
					"10": 0.060145068913698196,
					"11": 1.4378031492233276,
					"12": -0.32588982582092285,
					"13": 0.1894577294588089,
					"14": 0.07075437158346176,
					"15": -0.25912630558013916,
					"16": -7.912352085113525,
					"17": 0.9681349396705627,
					"18": -0.35723498463630676,
					"19": -7.41659688949585,
					"20": -0.3305152654647827,
					"21": -2.8667776584625244,
					"22": -4.8627028465271,
					"23": -0.5137868523597717,
					"24": -0.5301002264022827
				}
			},
			"1": {
				"bias": -3.685044527053833,
				"weights": {
					"0": 4.56640100479126,
					"1": -0.06458152085542679,
					"2": -1.3754082918167114,
					"3": -5.0329694747924805,
					"4": -6.11406946182251,
					"5": 7.945777893066406,
					"6": -14.404048919677734,
					"7": -1.0727260112762451,
					"8": 1.3122875690460205,
					"9": -1.4601898193359375,
					"10": 11.750558853149414,
					"11": -7.891850471496582,
					"12": -10.263101577758789,
					"13": 5.738246917724609,
					"14": 2.7908084392547607,
					"15": 2.363499164581299,
					"16": -8.848625183105469,
					"17": -7.306790351867676,
					"18": -3.406947612762451,
					"19": -7.654809951782227,
					"20": 8.265493392944336,
					"21": -18.7934513092041,
					"22": -11.811870574951172,
					"23": -6.2926249504089355,
					"24": 1.5265674591064453
				}
			},
			"2": {
				"bias": 7.760581016540527,
				"weights": {
					"0": -8.607549667358398,
					"1": 5.302612781524658,
					"2": -5.120392799377441,
					"3": 10.64799690246582,
					"4": -4.150222301483154,
					"5": -9.197952270507812,
					"6": -10.595314025878906,
					"7": 5.994379043579102,
					"8": -10.958967208862305,
					"9": 9.396187782287598,
					"10": 1.919835090637207,
					"11": 16.466413497924805,
					"12": -5.671798229217529,
					"13": -13.18642807006836,
					"14": 1.2730892896652222,
					"15": -16.177011489868164,
					"16": 8.803969383239746,
					"17": 1.6512482166290283,
					"18": 6.811889171600342,
					"19": 17.1176700592041,
					"20": 7.709826469421387,
					"21": -2.8785297870635986,
					"22": -6.909868240356445,
					"23": 4.543356895446777,
					"24": 11.540843963623047
				}
			},
			"3": {
				"bias": -1.041814923286438,
				"weights": {
					"0": -9.37550163269043,
					"1": -6.743768692016602,
					"2": 1.0072088241577148,
					"3": 1.1284383535385132,
					"4": -1.2491813898086548,
					"5": 6.491607666015625,
					"6": -4.810932636260986,
					"7": -0.7091655731201172,
					"8": -7.3931708335876465,
					"9": 5.987730979919434,
					"10": -13.626819610595703,
					"11": -4.849791049957275,
					"12": -7.849562644958496,
					"13": -8.203660011291504,
					"14": 2.5693743228912354,
					"15": -6.800020217895508,
					"16": 5.331751346588135,
					"17": 0.6301996111869812,
					"18": 0.3880273103713989,
					"19": 1.2584714889526367,
					"20": -2.058076858520508,
					"21": 3.7766754627227783,
					"22": -2.470630645751953,
					"23": -1.62555730342865,
					"24": 4.762509346008301
				}
			},
			"4": {
				"bias": -4.406395435333252,
				"weights": {
					"0": 9.830084800720215,
					"1": -17.013587951660156,
					"2": -30.045045852661133,
					"3": 0.011494198814034462,
					"4": -22.270761489868164,
					"5": -2.7047176361083984,
					"6": -25.47493553161621,
					"7": -26.372241973876953,
					"8": -9.775076866149902,
					"9": -6.308445930480957,
					"10": -1.0860466957092285,
					"11": -8.328476905822754,
					"12": -21.15239715576172,
					"13": 18.245471954345703,
					"14": 22.73375701904297,
					"15": -14.740220069885254,
					"16": 3.638599395751953,
					"17": 15.99983024597168,
					"18": -20.285531997680664,
					"19": -10.99266242980957,
					"20": -19.987550735473633,
					"21": 8.236795425415039,
					"22": 2.9148671627044678,
					"23": -20.28948211669922,
					"24": -15.164008140563965
				}
			}
		},
		{
			"0": {
				"bias": -2.008598804473877,
				"weights": {
					"0": 3.57965350151062,
					"1": 5.627347469329834,
					"2": 5.2187018394470215,
					"3": 6.743865489959717,
					"4": 1.8596932888031006
				}
			}
		}
	],
	"outputLookup": false,
	"inputLookup": false,
	"activation": "sigmoid",
	"trainOpts": {
		"iterations": 20000,
		"errorThresh": 0.005,
		"log": false,
		"logPeriod": 10,
		"learningRate": 0.3,
		"momentum": 0.1,
		"callbackPeriod": 10,
		"beta1": 0.9,
		"beta2": 0.999,
		"epsilon": 1e-8
	}
}
