{
	"sizes": [5, 16, 4, 1],
	"layers": [
		{ "0": {}, "1": {}, "2": {}, "3": {}, "4": {} },
		{
			"0": {
				"bias": 1.2068195343017578,
				"weights": {
					"0": 6.166363716125488,
					"1": 3.607553482055664,
					"2": 4.8625640869140625,
					"3": -20.68093490600586,
					"4": -54.577613830566406
				}
			},
			"1": {
				"bias": -2.4409868717193604,
				"weights": {
					"0": 19.634687423706055,
					"1": 1.7398593425750732,
					"2": -3.819366455078125,
					"3": -7.349555969238281,
					"4": -43.92778778076172
				}
			},
			"2": {
				"bias": -30.55480194091797,
				"weights": {
					"0": -22.218109130859375,
					"1": -13.324004173278809,
					"2": 22.366708755493164,
					"3": 21.075328826904297,
					"4": -18.03737449645996
				}
			},
			"3": {
				"bias": 10.724325180053711,
				"weights": {
					"0": -16.69769287109375,
					"1": 7.95183801651001,
					"2": -2.5390231609344482,
					"3": 0.5259848237037659,
					"4": -46.7486572265625
				}
			},
			"4": {
				"bias": -14.713764190673828,
				"weights": {
					"0": -22.898021697998047,
					"1": 13.283343315124512,
					"2": 29.186309814453125,
					"3": -9.718156814575195,
					"4": -50.35619354248047
				}
			},
			"5": {
				"bias": 5.356428146362305,
				"weights": {
					"0": -5.1605610847473145,
					"1": -3.6554317474365234,
					"2": 10.36489486694336,
					"3": -35.372440338134766,
					"4": -19.1417236328125
				}
			},
			"6": {
				"bias": 26.182416915893555,
				"weights": {
					"0": -20.78729820251465,
					"1": -15.657584190368652,
					"2": 0.2461915761232376,
					"3": 11.277649879455566,
					"4": -12.757102966308594
				}
			},
			"7": {
				"bias": -0.7048864960670471,
				"weights": {
					"0": 18.366596221923828,
					"1": 9.645695686340332,
					"2": 14.337528228759766,
					"3": -44.64983367919922,
					"4": -35.836246490478516
				}
			},
			"8": {
				"bias": 13.665170669555664,
				"weights": {
					"0": 3.768490791320801,
					"1": -69.21859741210938,
					"2": -28.40907096862793,
					"3": 7.357423782348633,
					"4": -31.018661499023438
				}
			},
			"9": {
				"bias": 2.1801908016204834,
				"weights": {
					"0": -18.4886474609375,
					"1": -20.985830307006836,
					"2": 33.874542236328125,
					"3": -15.115269660949707,
					"4": -36.87688064575195
				}
			},
			"10": {
				"bias": -15.025395393371582,
				"weights": {
					"0": -38.04001235961914,
					"1": 25.05785369873047,
					"2": 24.295490264892578,
					"3": -15.196537017822266,
					"4": -9.239594459533691
				}
			},
			"11": {
				"bias": -23.875686645507812,
				"weights": {
					"0": 5.477206707000732,
					"1": 38.94794464111328,
					"2": -11.130988121032715,
					"3": -1.243579626083374,
					"4": -30.49209213256836
				}
			},
			"12": {
				"bias": -5.8250651359558105,
				"weights": {
					"0": 31.70057487487793,
					"1": -15.741724014282227,
					"2": -4.679077625274658,
					"3": 16.03670310974121,
					"4": -70.02383422851562
				}
			},
			"13": {
				"bias": -16.891376495361328,
				"weights": {
					"0": -0.4511250853538513,
					"1": -7.331172943115234,
					"2": 30.134693145751953,
					"3": 10.410917282104492,
					"4": -69.30562591552734
				}
			},
			"14": {
				"bias": -2.005937099456787,
				"weights": {
					"0": 4.690054416656494,
					"1": 10.86133098602295,
					"2": -16.877531051635742,
					"3": -1.4310975074768066,
					"4": -42.04855728149414
				}
			},
			"15": {
				"bias": 17.25430679321289,
				"weights": {
					"0": -37.02387237548828,
					"1": -12.016207695007324,
					"2": -22.735336303710938,
					"3": 0.82904452085495,
					"4": -29.688840866088867
				}
			}
		},
		{
			"0": {
				"bias": -36.06092071533203,
				"weights": {
					"0": 5.074313640594482,
					"1": -35.06474685668945,
					"2": 13.236104011535645,
					"3": -4.709689617156982,
					"4": -47.77846145629883,
					"5": 49.83124923706055,
					"6": 6.062288761138916,
					"7": 2.9102487564086914,
					"8": 34.49458312988281,
					"9": -55.759925842285156,
					"10": -0.868353009223938,
					"11": 40.153961181640625,
					"12": -5.522317409515381,
					"13": 41.5330696105957,
					"14": -63.53199005126953,
					"15": 9.736288070678711
				}
			},
			"1": {
				"bias": -56.17511749267578,
				"weights": {
					"0": -31.53022575378418,
					"1": 0.6019978523254395,
					"2": 1.3125239610671997,
					"3": -1.2771247625350952,
					"4": -1.1196463108062744,
					"5": 4.035430908203125,
					"6": 1.5322355031967163,
					"7": 12.415529251098633,
					"8": -31.904531478881836,
					"9": 34.10692596435547,
					"10": 7.325839996337891,
					"11": 18.755599975585938,
					"12": 19.717838287353516,
					"13": 1.2436341047286987,
					"14": 15.555707931518555,
					"15": 20.438152313232422
				}
			},
			"2": {
				"bias": -0.646636426448822,
				"weights": {
					"0": 25.96706199645996,
					"1": 2.289370536804199,
					"2": -28.574665069580078,
					"3": -42.17671203613281,
					"4": 3.0651705265045166,
					"5": 4.08082914352417,
					"6": 0.8545191287994385,
					"7": -25.144306182861328,
					"8": -8.811635971069336,
					"9": -3.5418860912323,
					"10": -0.8114010095596313,
					"11": -7.619678974151611,
					"12": -34.362796783447266,
					"13": 28.910184860229492,
					"14": 38.533172607421875,
					"15": -5.087527751922607
				}
			},
			"3": {
				"bias": -0.4221547245979309,
				"weights": {
					"0": -18.680465698242188,
					"1": -3.1054768562316895,
					"2": -1.930877447128296,
					"3": -8.166592597961426,
					"4": -32.85739517211914,
					"5": 15.107715606689453,
					"6": -15.717329025268555,
					"7": 0.20340019464492798,
					"8": 15.9571533203125,
					"9": -8.686108589172363,
					"10": 1.4745360612869263,
					"11": -26.2767333984375,
					"12": 0.46664926409721375,
					"13": -2.4781718254089355,
					"14": 1.5752604007720947,
					"15": -5.5256195068359375
				}
			}
		},
		{
			"0": {
				"bias": 0.3338935375213623,
				"weights": {
					"0": -1.2458853721618652,
					"1": -1.3231817483901978,
					"2": -1.3034569025039673,
					"3": -1.4715946912765503
				}
			}
		}
	],
	"outputLookup": false,
	"inputLookup": false,
	"activation": "sigmoid",
	"trainOpts": {
		"iterations": 20000,
		"errorThresh": 0.005,
		"log": false,
		"logPeriod": 10,
		"learningRate": 0.3,
		"momentum": 0.1,
		"callbackPeriod": 10,
		"beta1": 0.9,
		"beta2": 0.999,
		"epsilon": 1e-8
	}
}
