{
	"sizes": [30, 15, 1],
	"layers": [
		{
			"0": {},
			"1": {},
			"2": {},
			"3": {},
			"4": {},
			"5": {},
			"6": {},
			"7": {},
			"8": {},
			"9": {},
			"10": {},
			"11": {},
			"12": {},
			"13": {},
			"14": {},
			"15": {},
			"16": {},
			"17": {},
			"18": {},
			"19": {},
			"20": {},
			"21": {},
			"22": {},
			"23": {},
			"24": {},
			"25": {},
			"26": {},
			"27": {},
			"28": {},
			"29": {}
		},
		{
			"0": {
				"bias": -28.1092529296875,
				"weights": {
					"0": 3.4598772525787354,
					"1": -2.6636574268341064,
					"2": 2.124767541885376,
					"3": -13.182477951049805,
					"4": -6.806808948516846,
					"5": -16.320199966430664,
					"6": -0.1504930555820465,
					"7": -5.657569885253906,
					"8": 2.3029773235321045,
					"9": 6.264039516448975,
					"10": -11.840317726135254,
					"11": 6.978607654571533,
					"12": 3.5657081604003906,
					"13": 10.435256004333496,
					"14": 3.9991202354431152,
					"15": -6.815649032592773,
					"16": 5.3418145179748535,
					"17": -4.109925270080566,
					"18": -1.693878173828125,
					"19": -0.5010687112808228,
					"20": -8.627197265625,
					"21": 10.808987617492676,
					"22": -2.4323153495788574,
					"23": 19.27931785583496,
					"24": -10.074170112609863,
					"25": 4.035860538482666,
					"26": 9.187332153320312,
					"27": 6.940486907958984,
					"28": 9.484350204467773,
					"29": -8.722352981567383
				}
			},
			"1": {
				"bias": -17.247108459472656,
				"weights": {
					"0": 3.9980697631835938,
					"1": -4.680422306060791,
					"2": 8.801950454711914,
					"3": 7.256319046020508,
					"4": -12.118683815002441,
					"5": -1.9966776371002197,
					"6": 2.564307689666748,
					"7": 1.8746789693832397,
					"8": -14.199580192565918,
					"9": 2.712130308151245,
					"10": 11.600061416625977,
					"11": -10.14488410949707,
					"12": -0.6774803996086121,
					"13": 9.394479751586914,
					"14": 4.802642822265625,
					"15": 0.6080206036567688,
					"16": -11.774468421936035,
					"17": -0.754260778427124,
					"18": -9.772398948669434,
					"19": 9.114182472229004,
					"20": 17.711454391479492,
					"21": 1.2153651714324951,
					"22": -5.465677738189697,
					"23": -1.443426251411438,
					"24": 5.193659782409668,
					"25": -1.5634498596191406,
					"26": -19.901432037353516,
					"27": 2.9050092697143555,
					"28": 7.357722282409668,
					"29": -5.776678562164307
				}
			},
			"2": {
				"bias": -10.486248016357422,
				"weights": {
					"0": 5.328710556030273,
					"1": -0.435255229473114,
					"2": -21.647085189819336,
					"3": 6.796665668487549,
					"4": -8.238462448120117,
					"5": 5.35882568359375,
					"6": 8.087420463562012,
					"7": 1.093406319618225,
					"8": 1.3826024532318115,
					"9": 12.045319557189941,
					"10": -7.656243801116943,
					"11": -15.430262565612793,
					"12": 7.794695854187012,
					"13": 1.3762799501419067,
					"14": -21.10919761657715,
					"15": -16.52821159362793,
					"16": 0.5235694050788879,
					"17": -3.461609125137329,
					"18": 18.123130798339844,
					"19": -16.09364128112793,
					"20": -0.9660066366195679,
					"21": -16.637880325317383,
					"22": -3.796076536178589,
					"23": 0.3170984983444214,
					"24": -0.6045827865600586,
					"25": -1.258273959159851,
					"26": 4.1669087409973145,
					"27": -4.335079669952393,
					"28": 14.404129028320312,
					"29": 14.417830467224121
				}
			},
			"3": {
				"bias": -19.560264587402344,
				"weights": {
					"0": 5.925618648529053,
					"1": -2.784149169921875,
					"2": 2.358107805252075,
					"3": -6.381566047668457,
					"4": -6.705672264099121,
					"5": 1.5364642143249512,
					"6": -0.9073752760887146,
					"7": 12.437895774841309,
					"8": -9.481313705444336,
					"9": -12.629899978637695,
					"10": -2.3048808574676514,
					"11": -0.6949380040168762,
					"12": 5.034542560577393,
					"13": -3.93986439704895,
					"14": 1.1876256465911865,
					"15": -6.631372928619385,
					"16": 6.022427082061768,
					"17": 3.712683916091919,
					"18": -7.982053756713867,
					"19": 5.661259651184082,
					"20": 10.677474975585938,
					"21": 1.0902607440948486,
					"22": 10.400126457214355,
					"23": -3.673586368560791,
					"24": -2.324179172515869,
					"25": -5.479364395141602,
					"26": -9.461735725402832,
					"27": -1.0843617916107178,
					"28": 4.102219581604004,
					"29": 8.004242897033691
				}
			},
			"4": {
				"bias": -2.874347686767578,
				"weights": {
					"0": 4.506233215332031,
					"1": 4.50641393661499,
					"2": -4.823821544647217,
					"3": 7.218675136566162,
					"4": -10.887622833251953,
					"5": -3.320815086364746,
					"6": -14.425148010253906,
					"7": -5.194081783294678,
					"8": -2.0226941108703613,
					"9": 1.7589337825775146,
					"10": 5.4902663230896,
					"11": -7.256340026855469,
					"12": 1.8409841060638428,
					"13": -0.0844784826040268,
					"14": 10.850130081176758,
					"15": 6.804356575012207,
					"16": -8.027816772460938,
					"17": 3.7581591606140137,
					"18": -15.631089210510254,
					"19": -7.1114583015441895,
					"20": 2.265739917755127,
					"21": -7.098084449768066,
					"22": -0.1253262311220169,
					"23": -3.4692840576171875,
					"24": 8.087604522705078,
					"25": 3.2880306243896484,
					"26": -16.93145751953125,
					"27": 2.1815555095672607,
					"28": -11.226301193237305,
					"29": 6.52033805847168
				}
			},
			"5": {
				"bias": -22.60662078857422,
				"weights": {
					"0": -7.520828723907471,
					"1": 0.8360157608985901,
					"2": 10.441060066223145,
					"3": -8.852953910827637,
					"4": -11.390257835388184,
					"5": -1.454881191253662,
					"6": -1.0164037942886353,
					"7": -5.135954856872559,
					"8": -8.848298072814941,
					"9": -6.532238483428955,
					"10": 4.285897731781006,
					"11": -2.825148105621338,
					"12": -2.0074875354766846,
					"13": 1.7743066549301147,
					"14": 1.031058430671692,
					"15": -5.5091986656188965,
					"16": -8.018412590026855,
					"17": -7.82918643951416,
					"18": 11.034929275512695,
					"19": 5.675853252410889,
					"20": 0.8922013640403748,
					"21": 2.810401439666748,
					"22": 5.347907066345215,
					"23": 6.061860084533691,
					"24": 3.009230613708496,
					"25": 12.751241683959961,
					"26": 1.0400596857070923,
					"27": -0.6853753924369812,
					"28": -3.7199161052703857,
					"29": 16.723485946655273
				}
			},
			"6": {
				"bias": 0.962854266166687,
				"weights": {
					"0": 6.511075496673584,
					"1": -3.281247854232788,
					"2": -2.3211874961853027,
					"3": -12.880545616149902,
					"4": 0.04211124777793884,
					"5": 13.30333137512207,
					"6": 1.9063441753387451,
					"7": -7.685711860656738,
					"8": 5.322937488555908,
					"9": -12.98471736907959,
					"10": 8.036664962768555,
					"11": -6.193695068359375,
					"12": -9.219027519226074,
					"13": 11.015288352966309,
					"14": 1.0949617624282837,
					"15": -1.9307894706726074,
					"16": 12.190248489379883,
					"17": 1.000036597251892,
					"18": -8.61784839630127,
					"19": 3.563462734222412,
					"20": -2.8252859115600586,
					"21": -5.186207294464111,
					"22": -10.472334861755371,
					"23": -7.3161749839782715,
					"24": -15.324394226074219,
					"25": -3.370978593826294,
					"26": -1.6596423387527466,
					"27": 0.7990735173225403,
					"28": 2.258068323135376,
					"29": -9.510444641113281
				}
			},
			"7": {
				"bias": -7.5619916915893555,
				"weights": {
					"0": 4.364031791687012,
					"1": -12.226896286010742,
					"2": 11.935995101928711,
					"3": 5.963684558868408,
					"4": 5.063736438751221,
					"5": -6.252197265625,
					"6": -0.883255660533905,
					"7": -13.793067932128906,
					"8": 2.5405213832855225,
					"9": -5.799022197723389,
					"10": 0.7877928018569946,
					"11": -8.88912582397461,
					"12": 6.728742599487305,
					"13": 1.4589120149612427,
					"14": -1.3338704109191895,
					"15": -0.5673492550849915,
					"16": -2.2928175926208496,
					"17": -4.59377908706665,
					"18": 2.8423378467559814,
					"19": 13.540641784667969,
					"20": -6.583169460296631,
					"21": -7.8276448249816895,
					"22": 1.6234859228134155,
					"23": 7.78112268447876,
					"24": 0.7204461693763733,
					"25": -5.733785152435303,
					"26": -1.318750023841858,
					"27": -10.66260051727295,
					"28": 4.540220260620117,
					"29": -15.451749801635742
				}
			},
			"8": {
				"bias": -29.719472885131836,
				"weights": {
					"0": 14.319592475891113,
					"1": -2.7236363887786865,
					"2": -9.406585693359375,
					"3": -19.308956146240234,
					"4": 0.8969908356666565,
					"5": -1.1218593120574951,
					"6": 5.447903156280518,
					"7": 17.946247100830078,
					"8": -4.906996250152588,
					"9": -8.980021476745605,
					"10": -9.342315673828125,
					"11": -10.226289749145508,
					"12": -5.288486480712891,
					"13": -2.8967230319976807,
					"14": 2.804489850997925,
					"15": -7.77609395980835,
					"16": 13.23348331451416,
					"17": -4.880154609680176,
					"18": 0.003124380251392722,
					"19": 6.795126914978027,
					"20": -3.885122299194336,
					"21": -3.1135709285736084,
					"22": 4.937592029571533,
					"23": 8.438944816589355,
					"24": -2.8093347549438477,
					"25": 16.67496109008789,
					"26": 6.95072078704834,
					"27": -14.526000022888184,
					"28": 14.950279235839844,
					"29": 17.59868621826172
				}
			},
			"9": {
				"bias": 12.139059066772461,
				"weights": {
					"0": -0.7086712121963501,
					"1": -1.610718846321106,
					"2": -0.47166815400123596,
					"3": -0.18302179872989655,
					"4": -2.0195834636688232,
					"5": 0.4347573220729828,
					"6": -0.15521720051765442,
					"7": -0.48829421401023865,
					"8": -1.235946774482727,
					"9": -1.977239727973938,
					"10": -1.4465540647506714,
					"11": -1.3456416130065918,
					"12": 0.44315409660339355,
					"13": -2.1613919734954834,
					"14": -0.32786795496940613,
					"15": -0.5497196912765503,
					"16": -1.0264251232147217,
					"17": -0.2269565612077713,
					"18": 0.0014905121643096209,
					"19": -0.08849964290857315,
					"20": 0.39463213086128235,
					"21": 0.46284428238868713,
					"22": -1.1336541175842285,
					"23": -2.1435837745666504,
					"24": -0.6265100836753845,
					"25": -0.46901899576187134,
					"26": 0.061024393886327744,
					"27": -0.6714479327201843,
					"28": -0.4304964244365692,
					"29": -3.235100269317627
				}
			},
			"10": {
				"bias": -22.4635066986084,
				"weights": {
					"0": 12.664278030395508,
					"1": -9.984423637390137,
					"2": -4.053268909454346,
					"3": 2.2296528816223145,
					"4": -6.4357523918151855,
					"5": -1.489194393157959,
					"6": 15.205568313598633,
					"7": -4.2597761154174805,
					"8": -0.9833454489707947,
					"9": -8.258370399475098,
					"10": 1.2724758386611938,
					"11": 7.452826023101807,
					"12": -4.262398719787598,
					"13": -2.9799962043762207,
					"14": -2.6600542068481445,
					"15": -5.938869953155518,
					"16": -0.6359685063362122,
					"17": -4.603567123413086,
					"18": 2.4057185649871826,
					"19": 10.71146011352539,
					"20": 4.106269359588623,
					"21": -7.650980472564697,
					"22": 1.3283437490463257,
					"23": 15.327146530151367,
					"24": -13.035778999328613,
					"25": 0.8984880447387695,
					"26": -21.226764678955078,
					"27": -0.02218235842883587,
					"28": 12.612098693847656,
					"29": 7.865231513977051
				}
			},
			"11": {
				"bias": -5.53513765335083,
				"weights": {
					"0": -2.892292022705078,
					"1": 12.843621253967285,
					"2": 0.8892194628715515,
					"3": 1.8262403011322021,
					"4": 0.20094777643680573,
					"5": -14.243318557739258,
					"6": 1.9073785543441772,
					"7": 10.101548194885254,
					"8": 2.379943370819092,
					"9": -0.19541233777999878,
					"10": -3.1194963455200195,
					"11": 8.531028747558594,
					"12": -3.1481738090515137,
					"13": -0.38041871786117554,
					"14": -18.55208396911621,
					"15": -4.855409145355225,
					"16": 5.530384540557861,
					"17": -5.400852680206299,
					"18": -6.5979838371276855,
					"19": -1.7329877614974976,
					"20": 3.0162932872772217,
					"21": 6.07316780090332,
					"22": -7.015435695648193,
					"23": -8.298338890075684,
					"24": 7.747538089752197,
					"25": -16.080245971679688,
					"26": -6.203111171722412,
					"27": -11.318227767944336,
					"28": -0.8584408760070801,
					"29": 7.73118257522583
				}
			},
			"12": {
				"bias": 6.602466106414795,
				"weights": {
					"0": -2.320962905883789,
					"1": -0.9554644227027893,
					"2": 12.393768310546875,
					"3": 3.0080525875091553,
					"4": -4.372681617736816,
					"5": -9.958297729492188,
					"6": -5.5298638343811035,
					"7": -9.921222686767578,
					"8": 2.397207021713257,
					"9": -9.557295799255371,
					"10": -0.15267692506313324,
					"11": -0.22317731380462646,
					"12": 0.5298158526420593,
					"13": -3.852614641189575,
					"14": -0.1044212356209755,
					"15": 11.118194580078125,
					"16": -5.131601810455322,
					"17": -3.8765411376953125,
					"18": 12.184347152709961,
					"19": 11.609657287597656,
					"20": -1.6131556034088135,
					"21": -5.383735656738281,
					"22": -9.50827407836914,
					"23": -5.804210662841797,
					"24": -18.11998748779297,
					"25": 5.200276851654053,
					"26": 0.2623025178909302,
					"27": -12.204874992370605,
					"28": -7.782366752624512,
					"29": 8.484270095825195
				}
			},
			"13": {
				"bias": 14.323827743530273,
				"weights": {
					"0": 4.980261325836182,
					"1": -4.269225597381592,
					"2": -0.8021929860115051,
					"3": -4.9915289878845215,
					"4": 5.568511009216309,
					"5": -2.286525249481201,
					"6": -3.7960045337677,
					"7": 7.171372413635254,
					"8": 5.583268165588379,
					"9": 5.005253314971924,
					"10": -1.7524338960647583,
					"11": -4.776204586029053,
					"12": 9.909948348999023,
					"13": -21.15815544128418,
					"14": 2.0391945838928223,
					"15": -1.6509979963302612,
					"16": -7.742514133453369,
					"17": 1.1331374645233154,
					"18": -1.7085485458374023,
					"19": -1.8119087219238281,
					"20": 0.1087045967578888,
					"21": -18.817405700683594,
					"22": -5.318458557128906,
					"23": -16.85547637939453,
					"24": -6.3841023445129395,
					"25": -9.010848999023438,
					"26": -8.305774688720703,
					"27": 12.634671211242676,
					"28": -1.9455573558807373,
					"29": -14.075748443603516
				}
			},
			"14": {
				"bias": -9.123929023742676,
				"weights": {
					"0": -3.0608770847320557,
					"1": -0.2377392053604126,
					"2": -8.666686058044434,
					"3": -0.4803236424922943,
					"4": 4.811394691467285,
					"5": 5.58571720123291,
					"6": -2.232194662094116,
					"7": -12.721395492553711,
					"8": -0.8896483778953552,
					"9": -9.257379531860352,
					"10": 6.093430042266846,
					"11": -2.176206111907959,
					"12": -8.124342918395996,
					"13": -2.4435017108917236,
					"14": -7.414316654205322,
					"15": 16.443941116333008,
					"16": 6.140531539916992,
					"17": 6.697601318359375,
					"18": -3.1573891639709473,
					"19": -4.427447319030762,
					"20": 15.897048950195312,
					"21": 5.253696918487549,
					"22": -4.647366046905518,
					"23": -0.8731046915054321,
					"24": 1.2433152198791504,
					"25": -6.027971267700195,
					"26": -6.611362457275391,
					"27": 0.7444213032722473,
					"28": -1.4522236585617065,
					"29": -8.75200366973877
				}
			}
		},
		{
			"0": {
				"bias": -0.35425159335136414,
				"weights": {
					"0": 13.193921089172363,
					"1": -2.0416038036346436,
					"2": 2.8777756690979004,
					"3": 14.435609817504883,
					"4": 14.277565002441406,
					"5": 17.14373016357422,
					"6": 12.457548141479492,
					"7": 12.539902687072754,
					"8": -1.5323141813278198,
					"9": 0.5517037510871887,
					"10": 2.9926388263702393,
					"11": 11.209173202514648,
					"12": -3.358285665512085,
					"13": 16.479772567749023,
					"14": 10.267003059387207
				}
			}
		}
	],
	"outputLookup": false,
	"inputLookup": false,
	"activation": "sigmoid",
	"trainOpts": {
		"iterations": 20000,
		"errorThresh": 0.005,
		"log": false,
		"logPeriod": 10,
		"learningRate": 0.3,
		"momentum": 0.1,
		"callbackPeriod": 10,
		"beta1": 0.9,
		"beta2": 0.999,
		"epsilon": 1e-8
	}
}
