{ "sizes": [ 30, 15, 1 ], "layers": [ { "0": {}, "1": {}, "2": {}, "3": {}, "4": {}, "5": {}, "6": {}, "7": {}, "8": {}, "9": {}, "10": {}, "11": {}, "12": {}, "13": {}, "14": {}, "15": {}, "16": {}, "17": {}, "18": {}, "19": {}, "20": {}, "21": {}, "22": {}, "23": {}, "24": {}, "25": {}, "26": {}, "27": {}, "28": {}, "29": {} }, { "0": { "bias": 6.056783199310303, "weights": { "0": -6.925105094909668, "1": 5.427550792694092, "2": 1.02987539768219, "3": -3.278285026550293, "4": -2.4315345287323, "5": -13.767454147338867, "6": -0.38418009877204895, "7": 11.123106002807617, "8": 10.163727760314941, "9": 10.952754974365234, "10": -7.3267645835876465, "11": -7.45457124710083, "12": -6.0048651695251465, "13": -1.2888507843017578, "14": -6.504998207092285, "15": -3.490077257156372, "16": -6.475264072418213, "17": -1.7591718435287476, "18": -3.2104604244232178, "19": 5.6272149085998535, "20": -5.563604831695557, "21": -16.33456802368164, "22": -14.596426963806152, "23": -3.101510763168335, "24": 2.080773115158081, "25": 3.090000629425049, "26": 4.661251544952393, "27": -4.813188076019287, "28": -3.1053552627563477, "29": 4.060530185699463 } }, "1": { "bias": 33.105228424072266, "weights": { "0": -9.687644004821777, "1": 3.8128912448883057, "2": -6.71951150894165, "3": 8.133248329162598, "4": -7.014132976531982, "5": -4.074869155883789, "6": -2.1376988887786865, "7": -10.487617492675781, "8": 8.074335098266602, "9": 6.048205852508545, "10": 8.041047096252441, "11": -7.903149604797363, "12": 13.45918083190918, "13": 0.30940932035446167, "14": -7.149683952331543, "15": 8.5494384765625, "16": 8.498074531555176, "17": 3.4955830574035645, "18": 2.9513025283813477, "19": -6.198211193084717, "20": 1.1618857383728027, "21": 1.5905050039291382, "22": 2.0513710975646973, "23": 1.1025382280349731, "24": -11.435242652893066, "25": -13.924737930297852, "26": -9.937511444091797, "27": -5.452929973602295, "28": -13.09686279296875, "29": -4.738372325897217 } }, "2": { "bias": 7.559240818023682, "weights": { "0": 11.541869163513184, "1": -13.795631408691406, "2": -5.82384729385376, "3": -0.6865283250808716, "4": -5.153255462646484, "5": 6.047005653381348, "6": 0.4982821047306061, "7": 9.413139343261719, "8": -3.1377041339874268, "9": 8.1607084274292, "10": 7.315874099731445, "11": -14.676983833312988, "12": -10.575486183166504, "13": -8.951604843139648, "14": -11.340567588806152, "15": -2.692793130874634, "16": 6.759634017944336, "17": -6.033750534057617, "18": -14.108975410461426, "19": 2.807551860809326, "20": 3.5665478706359863, "21": -5.219958305358887, "22": -12.48495101928711, "23": 4.529188632965088, "24": -5.295261383056641, "25": 2.321434259414673, "26": 5.747552394866943, "27": -2.2456085681915283, "28": 1.2661281824111938, "29": 4.8106889724731445 } }, "3": { "bias": -1.9920892715454102, "weights": { "0": 4.0373454093933105, "1": -2.9818742275238037, "2": 2.2860758304595947, "3": -4.060441970825195, "4": 6.573227405548096, "5": -6.1499342918396, "6": 10.682333946228027, "7": -13.695123672485352, "8": 4.750226020812988, "9": -5.0013427734375, "10": 6.37451171875, "11": -11.647565841674805, "12": 13.018024444580078, "13": -5.171554088592529, "14": -8.968758583068848, "15": 3.116870880126953, "16": 3.8798065185546875, "17": -3.5906167030334473, "18": 4.974344253540039, "19": -3.944620370864868, "20": -2.8239970207214355, "21": 0.014229306019842625, "22": 8.590217590332031, "23": -4.1658854484558105, "24": 0.7439972758293152, "25": -17.808027267456055, "26": -1.292698621749878, "27": -10.330554008483887, "28": -1.7439059019088745, "29": -15.98794937133789 } }, "4": { "bias": -3.203411340713501, "weights": { "0": -11.793603897094727, "1": -1.559549331665039, "2": -0.36194974184036255, "3": 0.40300071239471436, "4": -3.286421298980713, "5": 9.380309104919434, "6": -11.761955261230469, "7": 9.233437538146973, "8": 3.295854330062866, "9": -24.1782283782959, "10": 9.499650001525879, "11": -7.144746780395508, "12": -6.819067478179932, "13": -1.9528489112854004, "14": -2.1735100746154785, "15": 6.318832874298096, "16": 17.171676635742188, "17": 10.657551765441895, "18": -1.9108024835586548, "19": 3.7137508392333984, "20": 12.686029434204102, "21": -0.6299110651016235, "22": 1.1368378400802612, "23": -0.12917976081371307, "24": -17.447799682617188, "25": -8.889880180358887, "26": -13.652037620544434, "27": 0.24125929176807404, "28": 1.6209012269973755, "29": -12.678637504577637 } }, "5": { "bias": -11.602994918823242, "weights": { "0": -1.2215615510940552, "1": -3.0740151405334473, "2": -11.759750366210938, "3": 14.553315162658691, "4": -14.822868347167969, "5": 8.616753578186035, "6": 8.57202434539795, "7": -8.932252883911133, "8": -0.18575046956539154, "9": 4.00969934463501, "10": -9.398693084716797, "11": -12.183029174804688, "12": -7.465130805969238, "13": 0.27042609453201294, "14": -11.850055694580078, "15": -9.03911018371582, "16": -3.6982216835021973, "17": 0.4039701521396637, "18": 12.441730499267578, "19": -10.682731628417969, "20": 5.111821174621582, "21": 9.63534164428711, "22": 3.6881542205810547, "23": -3.7847838401794434, "24": -2.7077674865722656, "25": 7.4041290283203125, "26": 1.3654460906982422, "27": -5.310577869415283, "28": -3.7443196773529053, "29": 14.824742317199707 } }, "6": { "bias": -34.49222183227539, "weights": { "0": 20.355846405029297, "1": -16.04051399230957, "2": -7.762921333312988, "3": -0.3958579897880554, "4": 0.713160514831543, "5": 4.695820331573486, "6": 10.509873390197754, "7": 8.77310562133789, "8": 2.518310308456421, "9": -2.311006784439087, "10": -6.88731575012207, "11": 11.687875747680664, "12": -5.069687843322754, "13": 1.0630509853363037, "14": 6.295696258544922, "15": -14.836586952209473, "16": 4.085527420043945, "17": -1.40494966506958, "18": -6.021620273590088, "19": 5.102899074554443, "20": 2.292515993118286, "21": -6.205503940582275, "22": 8.366639137268066, "23": 6.5614118576049805, "24": -15.643790245056152, "25": 9.68358325958252, "26": -8.72878646850586, "27": 5.812061786651611, "28": 10.542257308959961, "29": -13.331483840942383 } }, "7": { "bias": -10.934674263000488, "weights": { "0": 14.831183433532715, "1": -16.738933563232422, "2": -5.934810161590576, "3": -2.5467584133148193, "4": -0.2039041668176651, "5": 13.89394760131836, "6": -1.3090206384658813, "7": 2.5983314514160156, "8": -1.642288088798523, "9": 1.207297682762146, "10": 6.727499008178711, "11": -3.5619471073150635, "12": -9.98620891571045, "13": -6.746092796325684, "14": -18.703413009643555, "15": 6.6519389152526855, "16": 9.633370399475098, "17": -0.32468658685684204, "18": -10.119421005249023, "19": 7.383319854736328, "20": 5.604868412017822, "21": -0.43198463320732117, "22": -9.891995429992676, "23": -9.08614444732666, "24": 1.3505713939666748, "25": 7.221304893493652, "26": 21.919689178466797, "27": -1.3915565013885498, "28": -6.198582649230957, "29": -7.053221225738525 } }, "8": { "bias": -0.10727731883525848, "weights": { "0": -5.2613420486450195, "1": 3.9313433170318604, "2": 6.126125335693359, "3": 0.5650296211242676, "4": -7.507696151733398, "5": -3.0317647457122803, "6": 1.4684736728668213, "7": -3.707500457763672, "8": -0.33950209617614746, "9": 4.69764518737793, "10": -9.26375961303711, "11": 8.681944847106934, "12": -9.93790340423584, "13": 3.8419456481933594, "14": 4.190648078918457, "15": -2.9910707473754883, "16": 2.5525498390197754, "17": -0.6769305467605591, "18": -0.5919626355171204, "19": 2.42000150680542, "20": 3.1707043647766113, "21": 12.308148384094238, "22": -10.695569038391113, "23": -7.366579532623291, "24": -9.01896858215332, "25": -4.811269283294678, "26": 1.446894645690918, "27": -9.814419746398926, "28": -4.395549297332764, "29": -6.590171813964844 } }, "9": { "bias": -6.576388835906982, "weights": { "0": 3.4185192584991455, "1": 3.4911186695098877, "2": 7.879714488983154, "3": 7.002123832702637, "4": -6.949356555938721, "5": -4.573057651519775, "6": -0.28960978984832764, "7": 3.044522285461426, "8": -4.665942668914795, "9": -3.4193921089172363, "10": -7.1224846839904785, "11": 2.2366936206817627, "12": -1.8167576789855957, "13": 2.076782464981079, "14": 3.074641704559326, "15": 2.1394777297973633, "16": 0.6934112310409546, "17": 4.79025936126709, "18": -1.9893046617507935, "19": 10.292038917541504, "20": 10.45465087890625, "21": 3.0021326541900635, "22": -9.623809814453125, "23": -5.012293338775635, "24": -10.885777473449707, "25": -4.615326404571533, "26": -3.0138347148895264, "27": -16.118389129638672, "28": -1.2982866764068604, "29": 1.1966546773910522 } }, "10": { "bias": -23.98731803894043, "weights": { "0": 6.649101257324219, "1": 1.3873692750930786, "2": -9.029816627502441, "3": 0.034863099455833435, "4": 6.206385612487793, "5": 3.4881231784820557, "6": -1.9998947381973267, "7": -5.917366981506348, "8": 6.596302509307861, "9": 2.2346303462982178, "10": -2.450578212738037, "11": 2.0821235179901123, "12": 4.797744274139404, "13": -2.8675150871276855, "14": -6.9626145362854, "15": 11.350994110107422, "16": 11.415741920471191, "17": -0.08645841479301453, "18": -3.713552236557007, "19": 0.7056745290756226, "20": 1.5670208930969238, "21": -7.132613658905029, "22": 5.709603786468506, "23": -3.9475276470184326, "24": -2.1582541465759277, "25": 3.9348642826080322, "26": 2.6640138626098633, "27": -2.329878330230713, "28": -3.2171270847320557, "29": 8.393338203430176 } }, "11": { "bias": -17.662574768066406, "weights": { "0": 12.200241088867188, "1": 7.3044233322143555, "2": 6.9587483406066895, "3": 3.119497776031494, "4": -3.7976608276367188, "5": -1.0663139820098877, "6": -5.100402355194092, "7": 7.991490840911865, "8": -9.758307456970215, "9": -13.628007888793945, "10": -3.0080912113189697, "11": -7.973269462585449, "12": -3.7040035724639893, "13": -9.723913192749023, "14": 7.93363094329834, "15": 3.3490500450134277, "16": 0.5924164652824402, "17": 11.415897369384766, "18": -15.603453636169434, "19": 10.866250991821289, "20": -5.614322662353516, "21": 1.7871389389038086, "22": -10.483551979064941, "23": -10.06541633605957, "24": -1.9238158464431763, "25": -5.176325798034668, "26": -3.7690041065216064, "27": 8.058238983154297, "28": -2.6728591918945312, "29": 11.670440673828125 } }, "12": { "bias": -1.4674221277236938, "weights": { "0": 1.1233009099960327, "1": -7.394916534423828, "2": -8.802534103393555, "3": -3.7278025150299072, "4": -9.056570053100586, "5": 8.385784149169922, "6": -12.128144264221191, "7": 11.190947532653809, "8": -1.6869021654129028, "9": 8.921313285827637, "10": -3.2944371700286865, "11": -5.601265907287598, "12": 6.541658401489258, "13": -8.105935096740723, "14": -6.467051029205322, "15": 4.684418201446533, "16": 2.27510142326355, "17": -13.291264533996582, "18": 0.08130420744419098, "19": -20.024965286254883, "20": 1.7151328325271606, "21": -4.917239189147949, "22": 7.654237270355225, "23": -6.876265525817871, "24": 6.135801315307617, "25": -3.102184772491455, "26": -2.568584680557251, "27": -12.993836402893066, "28": 15.747724533081055, "29": 9.030423164367676 } }, "13": { "bias": -17.466777801513672, "weights": { "0": -2.1575546264648438, "1": 3.105639696121216, "2": -10.766807556152344, "3": 4.93400764465332, "4": 5.367891311645508, "5": -7.601068496704102, "6": -2.0128259658813477, "7": -10.63036823272705, "8": -3.836361885070801, "9": -5.770432949066162, "10": 16.978145599365234, "11": 0.6610825657844543, "12": -4.917342662811279, "13": -4.903425216674805, "14": -7.114067554473877, "15": 12.778491973876953, "16": 3.5708959102630615, "17": 4.000537395477295, "18": 1.6576437950134277, "19": -5.983470439910889, "20": 16.456796646118164, "21": 6.198378086090088, "22": -13.118974685668945, "23": 5.492921352386475, "24": 2.880783796310425, "25": -5.820511817932129, "26": -4.612079620361328, "27": -2.5698752403259277, "28": 2.251884698867798, "29": -11.52820110321045 } }, "14": { "bias": -15.437188148498535, "weights": { "0": 2.6536080837249756, "1": 16.266733169555664, "2": -13.06903076171875, "3": 4.687001705169678, "4": -6.398046493530273, "5": 1.0579074621200562, "6": 5.907053470611572, "7": -4.208582401275635, "8": -0.9724385142326355, "9": 0.8268154263496399, "10": -28.619808197021484, "11": 18.94845199584961, "12": 2.9047281742095947, "13": -7.0405192375183105, "14": -0.877588152885437, "15": 10.734502792358398, "16": 5.540492534637451, "17": 0.268661230802536, "18": -7.006192684173584, "19": 6.017882347106934, "20": -0.05784989520907402, "21": -10.391759872436523, "22": -2.8620564937591553, "23": -2.6747381687164307, "24": 2.2498648166656494, "25": 2.3767240047454834, "26": 1.58191978931427, "27": -8.719314575195312, "28": -2.9815399646759033, "29": 0.038399793207645416 } } }, { "0": { "bias": -0.7500649690628052, "weights": { "0": 13.002450942993164, "1": 0.8806363344192505, "2": -2.0071589946746826, "3": 12.11920166015625, "4": 1.6749064922332764, "5": 13.112475395202637, "6": 3.9240875244140625, "7": 1.6221950054168701, "8": 14.767638206481934, "9": -5.2811102867126465, "10": -1.3385814428329468, "11": 18.51545524597168, "12": 3.3653335571289062, "13": 11.699751853942871, "14": 1.6023414134979248 } } } ], "outputLookup": false, "inputLookup": false, "activation": "sigmoid", "trainOpts": { "iterations": 20000, "errorThresh": 0.005, "log": false, "logPeriod": 10, "learningRate": 0.3, "momentum": 0.1, "callbackPeriod": 10, "beta1": 0.9, "beta2": 0.999, "epsilon": 1e-8 } }
