{ "sizes": [ 30, 15, 1 ], "layers": [ { "0": {}, "1": {}, "2": {}, "3": {}, "4": {}, "5": {}, "6": {}, "7": {}, "8": {}, "9": {}, "10": {}, "11": {}, "12": {}, "13": {}, "14": {}, "15": {}, "16": {}, "17": {}, "18": {}, "19": {}, "20": {}, "21": {}, "22": {}, "23": {}, "24": {}, "25": {}, "26": {}, "27": {}, "28": {}, "29": {} }, { "0": { "bias": -7.808398246765137, "weights": { "0": -6.861090183258057, "1": -1.3883777856826782, "2": 0.6290915012359619, "3": 0.3226538598537445, "4": -6.436984062194824, "5": -9.86074447631836, "6": 14.455960273742676, "7": -3.6603505611419678, "8": 14.79743480682373, "9": 16.27455711364746, "10": -8.939932823181152, "11": 1.852766513824463, "12": -1.919952154159546, "13": -1.9237618446350098, "14": -12.261251449584961, "15": -12.062847137451172, "16": 2.365344285964966, "17": 3.0224084854125977, "18": -6.807433605194092, "19": -5.920721054077148, "20": -3.6419167518615723, "21": 7.5396904945373535, "22": -9.016084671020508, "23": 4.375808238983154, "24": -1.5849854946136475, "25": -0.9639965295791626, "26": 2.819728136062622, "27": -8.195335388183594, "28": 2.3160252571105957, "29": -4.088212490081787 } }, "1": { "bias": 31.19219970703125, "weights": { "0": -4.733565330505371, "1": 3.5572152137756348, "2": 1.4386917352676392, "3": -0.8361283540725708, "4": -5.38954496383667, "5": 6.588321685791016, "6": 0.21259132027626038, "7": 7.275816440582275, "8": 7.3667311668396, "9": 16.597471237182617, "10": -0.36351218819618225, "11": 13.074189186096191, "12": 4.199514865875244, "13": 7.214378833770752, "14": 5.067952632904053, "15": -4.133870601654053, "16": 3.55644154548645, "17": -4.025805950164795, "18": -6.301770210266113, "19": 12.333410263061523, "20": 1.953484058380127, "21": -5.446407794952393, "22": -13.832781791687012, "23": -4.76248025894165, "24": -11.415009498596191, "25": -16.43494987487793, "26": -10.88576889038086, "27": -11.888314247131348, "28": -11.91352653503418, "29": -5.9061126708984375 } }, "2": { "bias": 5.97188138961792, "weights": { "0": 4.649114608764648, "1": -6.880020618438721, "2": 0.8496303558349609, "3": -4.934071063995361, "4": -0.8855589628219604, "5": -0.2923968434333801, "6": -1.722701907157898, "7": 4.515567779541016, "8": -4.812092304229736, "9": -0.2908943295478821, "10": -0.17222917079925537, "11": -8.120966911315918, "12": -2.1692121028900146, "13": -2.6873297691345215, "14": -6.312979221343994, "15": -3.5216176509857178, "16": 3.5593159198760986, "17": -1.6594793796539307, "18": -8.45600414276123, "19": 5.054671764373779, "20": 0.9677180051803589, "21": -3.624124050140381, "22": -2.9621191024780273, "23": 2.0783071517944336, "24": -5.604287147521973, "25": 4.464837074279785, "26": 2.087348461151123, "27": 3.297215223312378, "28": -1.1055513620376587, "29": -2.202085018157959 } }, "3": { "bias": -1.5245128870010376, "weights": { "0": 3.000823736190796, "1": 1.8264400959014893, "2": -4.158314228057861, "3": 13.436258316040039, "4": 5.75402307510376, "5": 0.1730106621980667, "6": -5.661468505859375, "7": -11.752837181091309, "8": 0.2205258160829544, "9": -1.7024211883544922, "10": 5.959115505218506, "11": 7.8752217292785645, "12": -12.551741600036621, "13": -2.083301067352295, "14": 8.72927474975586, "15": 13.247421264648438, "16": 1.7118083238601685, "17": 2.4133238792419434, "18": -3.348057985305786, "19": -23.54549789428711, "20": 4.883662223815918, "21": 1.7961066961288452, "22": -11.794236183166504, "23": 1.7661465406417847, "24": -4.4274163246154785, "25": -3.4452223777770996, "26": -10.245794296264648, "27": -17.033849716186523, "28": -2.1870646476745605, "29": -12.186119079589844 } }, "4": { "bias": -13.581393241882324, "weights": { "0": -0.254867821931839, "1": 1.9137624502182007, "2": -13.34653377532959, "3": -1.0870707035064697, "4": -7.276583194732666, "5": 0.09270966798067093, "6": -3.1157572269439697, "7": 13.19803524017334, "8": 3.1984524726867676, "9": -6.607661724090576, "10": -10.926993370056152, "11": 1.7764142751693726, "12": 15.597354888916016, "13": -13.126225471496582, "14": 7.41931676864624, "15": -6.970085620880127, "16": 3.370431423187256, "17": 0.7562581300735474, "18": -3.1495041847229004, "19": 0.22623367607593536, "20": 10.625447273254395, "21": -6.901505947113037, "22": 12.902238845825195, "23": -3.639399766921997, "24": -2.0186710357666016, "25": 1.882575273513794, "26": -11.755208015441895, "27": 1.1940139532089233, "28": 0.08841998130083084, "29": -8.847017288208008 } }, "5": { "bias": -12.186197280883789, "weights": { "0": 5.264474868774414, "1": -8.206521987915039, "2": 2.2075142860412598, "3": -1.094409704208374, "4": -7.13124418258667, "5": 7.385965347290039, "6": -2.750307083129883, "7": -1.5302019119262695, "8": -7.338652610778809, "9": -16.19628143310547, "10": 16.604087829589844, "11": -3.107160806655884, "12": 1.8633935451507568, "13": -5.234667778015137, "14": -6.0566606521606445, "15": 3.9431681632995605, "16": -6.92250919342041, "17": 5.279707908630371, "18": -19.21980094909668, "19": 2.6583359241485596, "20": 4.59518575668335, "21": 0.43022099137306213, "22": -7.983455181121826, "23": -1.841132402420044, "24": -6.191838264465332, "25": 1.6984343528747559, "26": 9.419163703918457, "27": 1.9331783056259155, "28": 12.68203353881836, "29": -0.7441782355308533 } }, "6": { "bias": 10.318730354309082, "weights": { "0": 1.496896743774414, "1": -5.3007988929748535, "2": -3.6489789485931396, "3": -4.948459625244141, "4": 3.4541828632354736, "5": 4.522281169891357, "6": 0.5457501411437988, "7": -2.7180166244506836, "8": 0.8325713276863098, "9": -3.32688307762146, "10": 0.12942752242088318, "11": -1.4407328367233276, "12": -2.7462902069091797, "13": -1.8295100927352905, "14": -7.278859615325928, "15": 4.306097030639648, "16": 3.6131765842437744, "17": 1.386510968208313, "18": -2.7457454204559326, "19": 0.3137030005455017, "20": 0.6699957251548767, "21": 1.445617437362671, "22": -5.2266716957092285, "23": -5.949944972991943, "24": -0.4387965798377991, "25": 0.2624409794807434, "26": 2.1165757179260254, "27": -0.5417374968528748, "28": -7.152202606201172, "29": -4.576812267303467 } }, "7": { "bias": 6.728691101074219, "weights": { "0": -2.888319492340088, "1": -16.25848960876465, "2": 12.04188060760498, "3": 10.064252853393555, "4": -7.436013221740723, "5": -3.4140329360961914, "6": -13.121045112609863, "7": 6.074076175689697, "8": -8.264195442199707, "9": 0.03865760937333107, "10": 4.233024597167969, "11": 7.17624044418335, "12": -6.559266567230225, "13": -4.640632629394531, "14": 11.153162956237793, "15": 1.6172800064086914, "16": -21.25916290283203, "17": -7.532332420349121, "18": 5.131491661071777, "19": 4.788094520568848, "20": 10.809135437011719, "21": 2.8208975791931152, "22": -1.3414291143417358, "23": -7.194246768951416, "24": -9.831926345825195, "25": -8.098254203796387, "26": -9.35211181640625, "27": -14.81506061553955, "28": 4.72215461730957, "29": 0.1711030751466751 } }, "8": { "bias": 10.000422477722168, "weights": { "0": 5.3766770362854, "1": -2.7233211994171143, "2": -6.5629425048828125, "3": 8.087882995605469, "4": -3.807957410812378, "5": -1.078331470489502, "6": -14.801552772521973, "7": 0.02410091832280159, "8": -2.8084769248962402, "9": -1.0196874141693115, "10": -3.6307716369628906, "11": -11.911499977111816, "12": 6.748061656951904, "13": -4.748337268829346, "14": 1.4174963235855103, "15": 6.259753704071045, "16": -12.427690505981445, "17": -10.845163345336914, "18": -7.438103199005127, "19": 1.8983104228973389, "20": -11.468732833862305, "21": -1.4198861122131348, "22": 8.248172760009766, "23": -15.160867691040039, "24": 6.309381484985352, "25": -1.2161314487457275, "26": 3.976144313812256, "27": 3.350045680999756, "28": 0.919535219669342, "29": -5.069134712219238 } }, "9": { "bias": -31.3908634185791, "weights": { "0": 0.5799038410186768, "1": -8.918767929077148, "2": -2.225423812866211, "3": 3.057598829269409, "4": -12.39456558227539, "5": 6.233584403991699, "6": 0.300904244184494, "7": 4.070799827575684, "8": -4.679285049438477, "9": 4.779816627502441, "10": 3.0256710052490234, "11": -9.501954078674316, "12": 0.009827306494116783, "13": 1.2774404287338257, "14": -9.06254768371582, "15": -7.498457908630371, "16": -7.452555179595947, "17": -8.496454238891602, "18": 16.337629318237305, "19": -2.7106471061706543, "20": 9.527918815612793, "21": 3.444300651550293, "22": 12.260764122009277, "23": 6.731585502624512, "24": -1.3572726249694824, "25": 13.035563468933105, "26": 6.840631008148193, "27": -1.0383323431015015, "28": 1.6697866916656494, "29": 0.38633373379707336 } }, "10": { "bias": -14.88664722442627, "weights": { "0": 10.501437187194824, "1": -4.58549165725708, "2": 10.729950904846191, "3": -5.546077728271484, "4": 4.712777137756348, "5": -10.569778442382812, "6": -17.632823944091797, "7": -6.561981201171875, "8": 1.213078260421753, "9": 10.588544845581055, "10": 22.340646743774414, "11": -12.244519233703613, "12": -4.105249881744385, "13": -10.886116027832031, "14": 3.8175008296966553, "15": 6.802361011505127, "16": 1.3922979831695557, "17": 7.654922962188721, "18": -9.078540802001953, "19": 7.160808086395264, "20": -3.389667510986328, "21": -4.227179050445557, "22": -11.959468841552734, "23": 5.415571212768555, "24": 10.83080005645752, "25": -1.596662163734436, "26": -20.612947463989258, "27": -0.8567138910293579, "28": -13.369648933410645, "29": 3.5672309398651123 } }, "11": { "bias": -17.408971786499023, "weights": { "0": 8.597249031066895, "1": -5.873248100280762, "2": 3.9168014526367188, "3": -7.510259628295898, "4": 5.941566467285156, "5": -2.4535508155822754, "6": 15.017236709594727, "7": -19.554567337036133, "8": 3.4874634742736816, "9": 3.8541853427886963, "10": -2.491441011428833, "11": -2.5757951736450195, "12": 6.43540096282959, "13": -2.6573493480682373,
    "14": -4.694666862487793, "15": 7.274298191070557, "16": 5.417747974395752, "17": -9.848394393920898, "18": -5.318197727203369, "19": -4.710131645202637, "20": 1.4890415668487549, "21": 1.7640142440795898, "22": 0.33196505904197693, "23": 5.717986583709717, "24": -9.005763053894043, "25": -1.087213397026062, "26": -3.3934803009033203, "27": 0.07464464008808136, "28": 10.109277725219727, "29": -10.686104774475098 } }, "12": { "bias": -19.999889373779297, "weights": { "0": -5.073165416717529, "1": -1.7735447883605957, "2": -8.930046081542969, "3": -23.887800216674805, "4": -9.51755142211914, "5": 4.951920986175537, "6": -1.6353203058242798, "7": 20.279781341552734, "8": -8.557292938232422, "9": -15.850507736206055, "10": 5.840134143829346, "11": -8.527915000915527, "12": -13.991622924804688, "13": 8.6710786819458, "14": 0.48363617062568665, "15": -13.963606834411621, "16": 19.747411727905273, "17": -3.0698859691619873, "18": 1.2254458665847778, "19": 9.501958847045898, "20": 11.992613792419434, "21": 0.7314358353614807, "22": -1.7215325832366943, "23": 9.036617279052734, "24": -10.546000480651855, "25": 1.9983079433441162, "26": 14.610750198364258, "27": 19.054697036743164, "28": -8.00931453704834, "29": -20.49392318725586 } }, "13": { "bias": -9.789118766784668, "weights": { "0": -10.756072044372559, "1": -9.341878890991211, "2": -5.769176959991455, "3": 4.773807525634766, "4": -4.259129047393799, "5": -0.3385152220726013, "6": 10.174967765808105, "7": -9.501540184020996, "8": 5.464133262634277, "9": -1.761684536933899, "10": 0.037122562527656555, "11": -13.630609512329102, "12": -0.5473834872245789, "13": -3.726001501083374, "14": -8.489811897277832, "15": -3.1312735080718994, "16": -2.857741594314575, "17": 3.526313066482544, "18": 8.36771011352539, "19": -17.354175567626953, "20": -6.121359825134277, "21": 6.509829998016357, "22": 10.120134353637695, "23": -0.05175609141588211, "24": -14.119490623474121, "25": 1.005897045135498, "26": -4.263448238372803, "27": 1.3873705863952637, "28": 0.7712888717651367, "29": 29.22949981689453 } }, "14": { "bias": -0.2617400884628296, "weights": { "0": 3.1785683631896973, "1": -13.506536483764648, "2": -8.973835945129395, "3": -13.967230796813965, "4": 7.271787166595459, "5": 0.3524499535560608, "6": 5.288240432739258, "7": -3.3001456260681152, "8": 15.6290283203125, "9": 7.241301536560059, "10": 1.2329665422439575, "11": 4.763930797576904, "12": -0.5426591634750366, "13": 5.929876804351807, "14": -11.956268310546875, "15": 17.858306884765625, "16": 22.930904388427734, "17": 7.104952335357666, "18": -7.393753528594971, "19": -1.1311769485473633, "20": -4.351283073425293, "21": -1.8091050386428833, "22": -7.510309219360352, "23": -9.939026832580566, "24": -8.5487060546875, "25": -1.0785666704177856, "26": -3.000282049179077, "27": -20.46709442138672, "28": -22.19656753540039, "29": 7.771938323974609 } } }, { "0": { "bias": -1.5562644004821777, "weights": { "0": 9.734440803527832, "1": 1.5704418420791626, "2": -19.27286148071289, "3": 17.722379684448242, "4": 12.807605743408203, "5": 15.275826454162598, "6": 1.4858872890472412, "7": -10.251545906066895, "8": 5.301165580749512, "9": 7.957533836364746, "10": 14.697267532348633, "11": 10.546401977539062, "12": 10.301615715026855, "13": 7.319153785705566, "14": -1.329288125038147 } } } ], "outputLookup": false, "inputLookup": false, "activation": "sigmoid", "trainOpts": { "iterations": 20000, "errorThresh": 0.005, "log": false, "logPeriod": 10, "learningRate": 0.3, "momentum": 0.1, "callbackPeriod": 10, "beta1": 0.9, "beta2": 0.999, "epsilon": 1e-8 } }
