{ "sizes": [ 30, 25, 5, 1 ], "layers": [ { "0": {}, "1": {}, "2": {}, "3": {}, "4": {}, "5": {}, "6": {}, "7": {}, "8": {}, "9": {}, "10": {}, "11": {}, "12": {}, "13": {}, "14": {}, "15": {}, "16": {}, "17": {}, "18": {}, "19": {}, "20": {}, "21": {}, "22": {}, "23": {}, "24": {}, "25": {}, "26": {}, "27": {}, "28": {}, "29": {} }, { "0": { "bias": 7.243070602416992, "weights": { "0": -1.3739744424819946, "1": 7.017754554748535, "2": 1.1648472547531128, "3": 1.3763329982757568, "4": -4.458259105682373, "5": 6.463155269622803, "6": 0.1241597905755043, "7": -0.466240257024765, "8": 3.9764010906219482, "9": -10.143331527709961, "10": -4.750559329986572, "11": 1.3699830770492554, "12": -1.31692373752594, "13": -4.300335884094238, "14": 3.1765573024749756, "15": 5.403368949890137, "16": 4.06638240814209, "17": 4.795345306396484, "18": 1.0058648586273193, "19": 2.834829807281494, "20": -5.147892951965332, "21": -3.6586899757385254, "22": -4.426497459411621, "23": -1.1395885944366455, "24": 4.639017581939697, "25": 6.284427642822266, "26": 1.3316364288330078, "27": -5.5278401374816895, "28": -8.14675235748291, "29": 2.4372971057891846 } }, "1": { "bias": -3.664799690246582, "weights": { "0": 11.923937797546387, "1": -1.6214475631713867, "2": -1.277934193611145, "3": -9.749999046325684, "4": 6.866777420043945, "5": -11.243841171264648, "6": -3.9646878242492676, "7": -2.926286220550537, "8": -3.6960086822509766, "9": -8.584357261657715, "10": -10.558073043823242, "11": -9.1429443359375, "12": 1.6427139043807983, "13": 5.817051887512207, "14": 10.796338081359863, "15": -9.725102424621582, "16": -7.969669818878174, "17": -14.095449447631836, "18": 0.048182301223278046, "19": 3.329359292984009, "20": -1.6053762435913086, "21": -7.439238548278809, "22": 12.48267650604248, "23": 5.815334320068359, "24": 0.4311787784099579, "25": 15.576263427734375, "26": 6.258890628814697, "27": -3.1689679622650146, "28": 6.784998893737793, "29": 3.214921474456787 } }, "2": { "bias": 1.0442107915878296, "weights": { "0": 4.003751277923584, "1": -5.205938816070557, "2": 2.760638952255249, "3": -4.532900810241699, "4": -3.1265015602111816, "5": 5.000349998474121, "6": 0.8956542015075684, "7": 9.927865028381348, "8": -5.411451816558838, "9": 14.118794441223145, "10": 2.697253704071045, "11": -11.879487037658691, "12": -2.141310691833496, "13": -8.52759075164795, "14": -5.022777080535889, "15": 3.1769230365753174, "16": 10.3844575881958, "17": -13.956620216369629, "18": -14.621101379394531, "19": 3.199049949645996, "20": -5.2872233390808105, "21": 7.088537216186523, "22": -4.825564861297607, "23": 1.2315826416015625, "24": -9.099203109741211, "25": 2.155864715576172, "26": 1.0270280838012695, "27": -6.9391398429870605, "28": -2.2747528553009033, "29": 3.56876277923584 } }, "3": { "bias": -8.014187812805176, "weights": { "0": -5.737827301025391, "1": -7.506641864776611, "2": -4.381085395812988, "3": 0.6967628598213196, "4": 11.469439506530762, "5": -6.394054889678955, "6": -1.3014585971832275, "7": -1.2800441980361938, "8": 3.198636054992676, "9": -1.7962645292282104, "10": 2.1619203090667725, "11": -4.10935115814209, "12": 1.5085629224777222, "13": 4.712790012359619, "14": 5.215027809143066, "15": -6.388438701629639, "16": -1.5869640111923218, "17": -3.1926345825195312, "18": 2.0923972129821777, "19": 5.150387763977051, "20": -6.35637903213501, "21": 7.683032035827637, "22": -0.7028035521507263, "23": 9.365260124206543, "24": -7.211390972137451, "25": -0.1787048578262329, "26": -6.323611259460449, "27": 2.9065423011779785, "28": 7.7719831466674805, "29": -2.980447292327881 } }, "4": { "bias": -5.7573652267456055, "weights": { "0": -2.9339420795440674, "1": 5.427469730377197, "2": 4.498250961303711, "3": 4.209131717681885, "4": -6.389105796813965, "5": 7.3379740715026855, "6": -6.091075420379639, "7": 9.622323989868164, "8": -0.6089438199996948, "9": -3.3337290287017822, "10": -3.5431158542633057, "11": 6.185528755187988, "12": -7.890077114105225, "13": 1.27287757396698, "14": 2.814466953277588, "15": -1.0313507318496704, "16": 3.445418119430542, "17": 2.37070631980896, "18": 1.9327971935272217, "19": -1.9398212432861328, "20": -1.0510756969451904, "21": 3.7009379863739014, "22": 0.9890287518501282, "23": -0.997803270816803, "24": 10.692732810974121, "25": 9.021867752075195, "26": 5.421382904052734, "27": 1.6039537191390991, "28": -5.134605407714844, "29": 0.5943160653114319 } }, "5": { "bias": -12.480753898620605, "weights": { "0": 1.589637279510498, "1": 0.1634897142648697, "2": -4.119849681854248, "3": -7.466481685638428, "4": 11.329275131225586, "5": -0.3851100206375122, "6": -1.7218692302703857, "7": 6.9633355140686035, "8": 7.522336006164551, "9": -4.964285850524902, "10": -9.880146980285645, "11": -2.8267645835876465, "12": 4.695191383361816, "13": 1.5153888463974, "14": -4.134636878967285, "15": 7.166538238525391, "16": 9.399801254272461, "17": -4.14688777923584, "18": -3.142164707183838, "19": 6.343690872192383, "20": 8.095532417297363, "21": -3.696657419204712, "22": -0.7873346209526062, "23": 2.1293387413024902, "24": -6.122755527496338, "25": -2.075554609298706, "26": -3.887983560562134, "27": -5.391401290893555, "28": -3.72011399269104, "29": 8.274175643920898 } }, "6": { "bias": 1.8111326694488525, "weights": { "0": 6.5031352043151855, "1": -1.2779500484466553, "2": 0.8714641332626343, "3": 3.0823395252227783, "4": -1.667197823524475, "5": 1.15818452835083, "6": 1.330362319946289, "7": -0.507277250289917, "8": -3.8243157863616943, "9": 1.4926087856292725, "10": 0.39720118045806885, "11": -1.0867196321487427, "12": 2.4754748344421387, "13": -0.784834086894989, "14": -9.864638328552246, "15": -1.9282093048095703, "16": 1.8093668222427368, "17": -3.003234386444092, "18": 1.3096407651901245, "19": 3.426313638687134, "20": 5.586348056793213, "21": 8.02216625213623, "22": -1.4845643043518066, "23": 7.88730525970459, "24": -1.2402170896530151, "25": -6.071512222290039, "26": -2.7211647033691406, "27": 3.1890249252319336, "28": 0.3751150667667389, "29": -13.379292488098145 } }, "7": { "bias": -23.015155792236328, "weights": { "0": 4.06974983215332, "1": 1.9963542222976685, "2": 5.88075065612793, "3": -0.4322550594806671, "4": 0.4757988154888153, "5": -4.78400993347168, "6": 1.2304069995880127, "7": -0.8155468106269836, "8": -0.058205533772706985, "9": 6.283955097198486, "10": 5.493677616119385, "11": 0.20503556728363037, "12": 2.3547794818878174, "13": -1.9586495161056519, "14": -1.8298072814941406, "15": 1.276839017868042, "16": 3.186230182647705, "17": -3.3203041553497314, "18": -2.2060670852661133, "19": 1.1361103057861328, "20": 3.272859573364258, "21": 1.3719662427902222, "22": 1.443509817123413, "23": 4.192172527313232, "24": -0.7732892632484436, "25": -0.7314333915710449, "26": 1.5927557945251465, "27": 8.178581237792969, "28": -2.4740850925445557, "29": 1.1143531799316406 } }, "8": { "bias": -9.604496002197266, "weights": { "0": 2.9314510822296143, "1": 0.6635662913322449, "2": -2.256730556488037, "3": 5.512601375579834, "4": 5.467033386230469, "5": -2.747681140899658, "6": -6.442288398742676, "7": -4.374459743499756, "8": -6.244356632232666, "9": -8.51728343963623, "10": 1.9767067432403564, "11": 1.58735990524292, "12": -0.29945605993270874, "13": -5.275461196899414, "14": 3.477339029312134, "15": -2.5827198028564453, "16": -0.09104733914136887, "17": -13.668212890625, "18": 1.506749153137207, "19": -3.975404977798462, "20": -2.198089361190796, "21": -9.74880599975586, "22": 6.044572353363037, "23": -3.031700372695923, "24": 8.206581115722656, "25": 16.60070037841797, "26": 11.172152519226074, "27": 2.832979440689087, "28": -0.49134188890457153, "29": -1.567720651626587 } }, "9": { "bias": -6.143416881561279, "weights": { "0": -2.6184706687927246, "1": -4.076251029968262, "2": -4.241010665893555, "3": -2.555652618408203, "4": 8.630191802978516, "5": -7.132655620574951, "6": 1.21053147315979, "7": -3.2906060218811035, "8": 7.9989142417907715, "9": -7.378429889678955, "10": -7.993972301483154, "11": -12.054455757141113, "12": 5.243742942810059, "13": 4.852952003479004, "14": 4.156531810760498, "15": -2.9699912071228027, "16": -13.753745079040527, "17": -10.225088119506836, "18": -0.006892065051943064, "19": -10.684438705444336, "20": 6.287059307098389, "21": -9.969417572021484, "22": 1.251906394958496, "23": -7.638448715209961, "24": 11.472188949584961, "25": 5.387506008148193, "26": 23.159873962402344, "27": -0.35411596298217773, "28": -0.9131705164909363, "29": 11.584009170532227 } }, "10": { "bias": -3.160311460494995, "weights": { "0": 8.139893531799316, "1": -1.3735545873641968, "2": -0.550611138343811, "3": -7.303877353668213, "4": 2.239600419998169, "5": -7.565154075622559, "6": -1.878363013267517, "7": -0.830720841884613, "8": -2.4875364303588867, "9": -4.294527530670166, "10": -4.3260297775268555, "11": -5.989786148071289, "12": -4.5835371017456055, "13": -0.4798800051212311, "14": 4.934516429901123, "15": -4.383897304534912, "16": -4.689574718475342, "17": -0.15646366775035858, "18": 1.7236523628234863, "19": -0.05410139262676239, "20": -1.2461730241775513, "21": 2.7979137897491455, "22": 5.814311981201172, "23": 3.052335023880005, "24": 1.8728604316711426, "25": 9.307825088500977, "26": 3.4791178703308105, "27": -1.8132470846176147, "28": 5.1120285987854, "29": 0.3423812687397003 } }, "11": { "bias": 6.655735015869141, "weights":
    { "0": -9.511906623840332, "1": 4.091856956481934, "2": 1.0556365251541138, "3": -8.651972770690918, "4": 6.671876907348633, "5": -9.54941177368164, "6": -10.07474136352539, "7": 3.6419677734375, "8": 8.82206916809082, "9": 4.247287750244141, "10": 1.3919883966445923, "11": -9.119083404541016, "12": 2.4634170532226562, "13": -6.615711212158203, "14": 12.6857328414917, "15": -3.228853225708008, "16": -3.8435041904449463, "17": -5.873488426208496, "18": -7.589232444763184, "19": -2.228984832763672, "20": 4.54566764831543, "21": 1.4636526107788086, "22": 7.438878059387207, "23": -11.899304389953613, "24": -1.6103589534759521, "25": 7.465649127960205, "26": 0.7293556928634644, "27": 0.36713558435440063, "28": -5.594984531402588, "29": -0.43190810084342957 } }, "12": { "bias": -10.796761512756348, "weights": { "0": -8.364280700683594, "1": 8.83530330657959, "2": -3.5750904083251953, "3": 5.465916156768799, "4": 1.3258934020996094, "5": -5.3363800048828125, "6": -9.513664245605469, "7": 5.065475940704346, "8": 7.56133508682251, "9": 8.43552303314209, "10": 5.422863960266113, "11": -6.000304698944092, "12": 0.40732094645500183, "13": 18.422937393188477, "14": -12.046628952026367, "15": 2.817460060119629, "16": -9.743851661682129, "17": -4.186225414276123, "18": 0.47628456354141235, "19": 4.800012588500977, "20": 5.067755699157715, "21": -2.21406888961792, "22": 7.505615711212158, "23": -2.7838807106018066, "24": 1.2355681657791138, "25": 3.748307943344116, "26": -10.345582962036133, "27": 4.243065357208252, "28": -2.263303279876709, "29": -10.524565696716309 } }, "13": { "bias": -4.048306941986084, "weights": { "0": -7.213476657867432, "1": 2.3664145469665527, "2": 1.5039210319519043, "3": -5.11544132232666, "4": -7.1484270095825195, "5": -1.406430959701538, "6": -1.6246974468231201, "7": -12.430038452148438, "8": 4.144236087799072, "9": 3.9241738319396973, "10": 2.4217000007629395, "11": -4.661599159240723, "12": -4.750108242034912, "13": 0.3839317560195923, "14": 5.992950916290283, "15": 2.6565473079681396, "16": -0.5270389318466187, "17": 5.319063663482666, "18": 0.11409007757902145, "19": 9.000520706176758, "20": 2.0469300746917725, "21": 11.879301071166992, "22": -8.465861320495605, "23": 3.3173766136169434, "24": 9.339072227478027, "25": -4.480442523956299, "26": -5.624105453491211, "27": -7.488292694091797, "28": 4.092029571533203, "29": -13.544775009155273 } }, "14": { "bias": -0.9839756488800049, "weights": { "0": 0.08547987043857574, "1": 0.8964018225669861, "2": 0.044272422790527344, "3": -1.6163153648376465, "4": -4.732339859008789, "5": 0.7363651394844055, "6": -6.623157024383545, "7": 2.3027286529541016, "8": 4.737656593322754, "9": 7.065544605255127, "10": 3.656111240386963, "11": -5.484417915344238, "12": -5.757713317871094, "13": -2.9981086254119873, "14": 3.1783230304718018, "15": -1.236103892326355, "16": 4.198814868927002, "17": 0.14602039754390717, "18": -4.1029744148254395, "19": 4.442538261413574, "20": -7.663012981414795, "21": 2.643277168273926, "22": -0.9700859189033508, "23": 0.466259628534317, "24": -2.0800511837005615, "25": 6.789062023162842, "26": 1.850821852684021, "27": -3.4608027935028076, "28": -6.919588565826416, "29": -5.431600570678711 } }, "15": { "bias": 7.128840923309326, "weights": { "0": 0.15493878722190857, "1": 1.3205125331878662, "2": 1.8148157596588135, "3": 3.728942632675171, "4": -4.423863410949707, "5": -4.798735618591309, "6": -8.027674674987793, "7": -3.666332483291626, "8": -1.3562816381454468, "9": -7.348583221435547, "10": -0.27472513914108276, "11": 3.1854753494262695, "12": 2.493750810623169, "13": -11.87778091430664, "14": -3.9006638526916504, "15": 2.552069902420044, "16": -5.944714069366455, "17": -0.5150759816169739, "18": 4.593739986419678, "19": 9.144598960876465, "20": -3.045586585998535, "21": 0.8297703266143799, "22": -5.515410423278809, "23": -0.6044296026229858, "24": -4.269947528839111, "25": -1.6552417278289795, "26": 3.5781915187835693, "27": -6.289370059967041, "28": 1.3100402355194092, "29": 1.8835972547531128 } }, "16": { "bias": -0.17717133462429047, "weights": { "0": -1.5191751718521118, "1": -6.474023342132568, "2": -16.827533721923828, "3": -5.32151985168457, "4": -0.4688255190849304, "5": 7.2796454429626465, "6": 9.621378898620605, "7": 5.892524242401123, "8": -4.140161991119385, "9": -0.2942533791065216, "10": 3.258833169937134, "11": 1.7978737354278564, "12": -3.409980058670044, "13": -0.21179495751857758, "14": -6.673007011413574, "15": -1.2794203758239746, "16": -1.514099359512329, "17": -3.5069098472595215, "18": -10.647765159606934, "19": 0.9304667711257935, "20": 8.737471580505371, "21": -3.6404120922088623, "22": 2.335228443145752, "23": -16.904922485351562, "24": -1.5632890462875366, "25": 5.338521480560303, "26": 9.54599380493164, "27": 6.777722358703613, "28": 7.6275954246521, "29": -7.113681316375732 } }, "17": { "bias": -7.187855243682861, "weights": { "0": -4.260673522949219, "1": -13.021039962768555, "2": 6.804105758666992, "3": 14.246718406677246, "4": -6.486926555633545, "5": 0.5116585493087769, "6": -6.98123025894165, "7": -5.763311862945557, "8": -2.166726589202881, "9": -2.4109373092651367, "10": -4.381989002227783, "11": -7.240436553955078, "12": 4.333019256591797, "13": 9.854578971862793, "14": 3.9346866607666016, "15": 0.15846973657608032, "16": -4.685266017913818, "17": -9.16131591796875, "18": 9.280071258544922, "19": -6.7825422286987305, "20": 3.7521095275878906, "21": 0.3319171667098999, "22": 7.565255641937256, "23": 0.7166174650192261, "24": 4.436123847961426, "25": 12.804079055786133, "26": -1.563614010810852, "27": -2.9891183376312256, "28": -12.493535041809082, "29": -3.1739680767059326 } }, "18": { "bias": 6.744946002960205, "weights": { "0": -0.33049213886260986, "1": 0.47182169556617737, "2": -5.741302013397217, "3": -3.8155410289764404, "4": 0.2639106810092926, "5": 3.35215163230896, "6": 0.8841407299041748, "7": 4.027119159698486, "8": 0.6039344668388367, "9": -5.496156215667725, "10": -2.467907428741455, "11": -1.683071255683899, "12": 4.779994964599609, "13": -4.838027000427246, "14": 3.3403189182281494, "15": 0.6007017493247986, "16": 1.6157007217407227, "17": 1.0067397356033325, "18": -1.2549914121627808, "19": -0.201177179813385, "20": 7.332156181335449, "21": -0.1520954817533493, "22": -1.295253872871399, "23": -4.622400283813477, "24": -1.9905705451965332, "25": -3.256032943725586, "26": -10.925235748291016, "27": -1.3328624963760376, "28": -7.52237606048584, "29": 0.9520257711410522 } }, "19": { "bias": 1.1589531898498535, "weights": { "0": -11.35832691192627, "1": 0.023890050128102303, "2": 0.5593100190162659, "3": -3.970860481262207, "4": 4.838616847991943, "5": -12.273265838623047, "6": 4.264707565307617, "7": -7.174334526062012, "8": 5.511378288269043, "9": -11.579404830932617, "10": 0.8197713494300842, "11": -7.540492534637451, "12": -2.727738380432129, "13": 1.7255569696426392, "14": -10.93337631225586, "15": -0.3771761655807495, "16": 2.677614212036133, "17": 0.881950318813324, "18": -7.100431442260742, "19": -4.629452228546143, "20": 16.74085235595703, "21": -6.9485578536987305, "22": 10.279354095458984, "23": -0.5793629884719849, "24": 5.066136837005615, "25": 0.8650212287902832, "26": -8.95157241821289, "27": 1.4720425605773926, "28": 24.537240982055664, "29": -11.147507667541504 } }, "20": { "bias": -15.161903381347656, "weights": { "0": 6.109118461608887, "1": 5.440568447113037, "2": 2.8593380451202393, "3": 2.5443456172943115, "4": 1.2095386981964111, "5": -8.810639381408691, "6": 1.899609923362732, "7": 4.945381164550781, "8": 1.3622958660125732, "9": 1.8535232543945312, "10": -14.59168529510498, "11": 2.589783191680908, "12": 1.4885309934616089, "13": -3.402667760848999, "14": -5.557124137878418, "15": 1.6172312498092651, "16": -0.12998811900615692, "17": -6.85076904296875, "18": -5.601561546325684, "19": 6.2038164138793945, "20": 2.767606496810913, "21": -5.947545051574707, "22": 2.036041259765625, "23": 8.05892562866211, "24": 0.6173501014709473, "25": 4.646380424499512, "26": -1.4558497667312622, "27": -1.7243255376815796, "28": -2.980343818664551, "29": 4.746432781219482 } }, "21": { "bias": -1.2390480041503906, "weights": { "0": -5.746293544769287, "1": -5.888786792755127, "2": -3.3935134410858154, "3": 17.118547439575195, "4": -3.9496705532073975, "5": 5.461053848266602, "6": -2.2263073921203613, "7": -2.5182442665100098, "8": 4.232770919799805, "9": 6.355533123016357, "10": -9.921564102172852, "11": -11.677682876586914, "12": -0.13039900362491608, "13": -5.5633745193481445, "14": -10.658647537231445, "15": 0.3360652029514313, "16": -0.7911386489868164, "17": -1.10579252243042, "18": -10.104080200195312, "19": -9.311100006103516, "20": -7.719061851501465, "21": -0.3735327124595642, "22": 5.382355690002441, "23": -3.18894100189209, "24": 3.471707820892334, "25": 6.388644695281982, "26": -6.392229080200195, "27": 0.33655038475990295, "28": -1.407708764076233, "29": 11.53291130065918 } }, "22": { "bias": -3.978533983230591, "weights": { "0": -13.785978317260742, "1": -0.5991971492767334, "2": 8.46816349029541, "3": -2.7576746940612793, "4": 2.5249180793762207, "5": 13.323432922363281, "6": -2.298800230026245, "7": -10.752059936523438, "8": -5.217748165130615, "9": 4.553805828094482, "10": 1.8882375955581665, "11": -1.1423521041870117, "12": -7.590633392333984, "13": -3.2246034145355225, "14": 9.923693656921387, "15": -5.058285236358643, "16": -3.0999341011047363, "17": 5.945692539215088, "18": -7.9747161865234375, "19": -1.602535367012024, "20": 3.48994779586792, "21": 0.1803950071334839, "22": 2.3706438541412354, "23": -6.664348602294922, "24": 8.370868682861328, "25": -1.2810883522033691, "26": -7.302003860473633, "27": -1.5505717992782593, "28": -2.247368812561035, "29": 1.118965983390808 } }, "23": { "bias": 7.752771854400635,
        "weights": { "0": 0.9984132647514343, "1": 4.865551471710205, "2": 7.512819766998291, "3": 13.151318550109863, "4": -10.444289207458496, "5": -5.809177398681641, "6": 1.0928473472595215, "7": -4.736923694610596, "8": 7.096826553344727, "9": 12.23188591003418, "10": 3.5368402004241943, "11": -0.661593496799469, "12": 8.987360000610352, "13": -10.186713218688965, "14": 9.426262855529785, "15": -6.6260762214660645, "16": -8.615606307983398, "17": 5.4277801513671875, "18": -7.974245071411133, "19": 4.457517147064209, "20": -14.065408706665039, "21": 6.666370868682861, "22": 1.951977252960205, "23": -12.75440788269043, "24": 3.174499273300171, "25": -1.3350886106491089, "26": 1.7142008543014526, "27": -0.9995231628417969, "28": -0.018217025324702263, "29": 8.512248039245605 } }, "24": { "bias": 6.36996603012085, "weights": { "0": 2.530153751373291, "1": 0.7454757690429688, "2": 1.0702309608459473, "3": 1.8226146697998047, "4": 6.3943657875061035, "5": -4.466249465942383, "6": -12.469234466552734, "7": -2.830861806869507, "8": -4.857047080993652, "9": -3.581756353378296, "10": 0.043262217193841934, "11": -1.377535104751587, "12": -3.332624673843384, "13": -12.947379112243652, "14": 5.002298831939697, "15": 3.905102014541626, "16": 0.06375251710414886, "17": -6.787185192108154, "18": -5.5102057456970215, "19": 4.032139301300049, "20": -5.832931995391846, "21": -4.22963285446167, "22": -0.7845689654350281, "23": -7.426427841186523, "24": 5.234686851501465, "25": 2.538761615753174, "26": 9.443865776062012, "27": -8.555219650268555, "28": 2.9787847995758057, "29": 0.6266101598739624 } } }, { "0": { "bias": -4.201275825500488, "weights": { "0": 8.68271255493164, "1": 3.169553279876709, "2": -11.70547866821289, "3": 9.547819137573242, "4": 2.6122148036956787, "5": -12.342720985412598, "6": -4.9341936111450195, "7": 12.347737312316895, "8": -4.806797504425049, "9": -4.470885753631592, "10": -0.49625536799430847, "11": 0.0859685018658638, "12": -6.3509907722473145, "13": 4.8464508056640625, "14": 2.4112610816955566, "15": -1.2957477569580078, "16": 8.500226020812988, "17": 7.597397327423096, "18": 1.70924973487854, "19": -1.7833150625228882, "20": -0.09374058246612549, "21": 5.228057384490967, "22": -3.6309444904327393, "23": -15.78412914276123, "24": 5.472222805023193 } }, "1": { "bias": -12.113751411437988, "weights": { "0": -4.465409278869629, "1": -0.024599039927124977, "2": -9.158352851867676, "3": -3.9035935401916504, "4": 8.61095142364502, "5": -1.3587514162063599, "6": -0.8896204233169556, "7": -15.612556457519531, "8": -10.883445739746094, "9": 3.0664117336273193, "10": -4.964540958404541, "11": -1.111655831336975, "12": -4.215506553649902, "13": 4.652338027954102, "14": 2.1178088188171387, "15": -3.417494773864746, "16": -3.35036563873291, "17": -14.12590217590332, "18": 6.26352596282959, "19": 3.538235664367676, "20": -3.0329086780548096, "21": -4.590479373931885, "22": -6.917226314544678, "23": 4.645480155944824, "24": 2.298680305480957 } }, "2": { "bias": 4.531304836273193, "weights": { "0": -15.929433822631836, "1": 10.347951889038086, "2": -8.760274887084961, "3": -5.905551433563232, "4": 9.224823951721191, "5": 0.7739195227622986, "6": -3.9025235176086426, "7": -3.8985586166381836, "8": -11.198338508605957, "9": -8.9555025100708, "10": -14.599835395812988, "11": -3.470377206802368, "12": -3.0127720832824707, "13": 8.50635814666748, "14": 6.8311991691589355, "15": -7.319258213043213, "16": -1.5666613578796387, "17": -4.697186470031738, "18": 4.490146636962891, "19": 3.706852912902832, "20": 17.967226028442383, "21": -6.568027973175049, "22": -9.138113975524902, "23": -3.695492744445801, "24": -6.657135963439941 } }, "3": { "bias": -9.57443904876709, "weights": { "0": 15.7062349319458, "1": 15.27483081817627, "2": 3.8225417137145996, "3": -4.930671691894531, "4": -14.564955711364746, "5": -4.156722068786621, "6": 11.410008430480957, "7": -13.223762512207031, "8": -9.590373992919922, "9": -2.80775785446167, "10": -12.802522659301758, "11": 23.851648330688477, "12": -1.0314732789993286, "13": -25.13078498840332, "14": -14.641398429870605, "15": -19.95246124267578, "16": -16.581892013549805, "17": -21.30045509338379, "18": -23.01189422607422, "19": -6.436040878295898, "20": -17.877286911010742, "21": -11.372103691101074, "22": -0.4136275053024292, "23": 12.016494750976562, "24": 7.917985439300537 } }, "4": { "bias": 6.411442756652832, "weights": { "0": 4.122787952423096, "1": -3.0195858478546143, "2": -11.051148414611816, "3": -3.7915608882904053, "4": -13.180678367614746, "5": -11.452244758605957, "6": 2.813263416290283, "7": 0.8743754029273987, "8": -5.3086676597595215, "9": 4.120421886444092, "10": 1.6715301275253296, "11": -1.6679543256759644, "12": -1.3622398376464844, "13": -3.6377241611480713, "14": 7.6075239181518555, "15": -3.417506456375122, "16": 4.516355514526367, "17": 3.9880611896514893, "18": -1.1473160982131958, "19": -1.4598417282104492, "20": -1.323681354522705, "21": 15.562015533447266, "22": -4.866092681884766, "23": -3.7629570960998535, "24": 9.10403060913086 } } }, { "0": { "bias": -2.068392038345337, "weights": { "0": 5.081350326538086, "1": 5.3375983238220215, "2": 4.412328720092773, "3": 2.110707998275757, "4": 5.76262092590332 } } } ], "outputLookup": false, "inputLookup": false, "activation": "sigmoid", "trainOpts": { "iterations": 20000, "errorThresh": 0.005, "log": false, "logPeriod": 10, "learningRate": 0.3, "momentum": 0.1, "callbackPeriod": 10, "beta1": 0.9, "beta2": 0.999, "epsilon": 1e-8 } }